{"learner":{"attributes":{"best_iteration":"39","best_score":"0.03305785123966942","scikit_learn":"{\"_estimator_type\": \"classifier\"}"},"feature_names":[],"feature_types":[],"gradient_booster":{"model":{"cats":{"enc":[],"feature_segments":[],"sorted_idx":[]},"gbtree_model_param":{"num_parallel_tree":"1","num_trees":"360"},"iteration_indptr":[0,4,8,12,16,20,24,28,32,36,40,44,48,52,56,60,64,68,72,76,80,84,88,92,96,100,104,108,112,116,120,124,128,132,136,140,144,148,152,156,160,164,168,172,176,180,184,188,192,196,200,204,208,212,216,220,224,228,232,236,240,244,248,252,256,260,264,268,272,276,280,284,288,292,296,300,304,308,312,316,320,324,328,332,336,340,344,348,352,356,360],"tree_info":[0,1,2,3,0,1,2,3,0,1,2,3,0,1,2,3,0,1,2,3,0,1,2,3,0,1,2,3,0,1,2,3,0,1,2,3,0,1,2,3,0,1,2,3,0,1,2,3,0,1,2,3,0,1,2,3,0,1,2,3,0,1,2,3,0,1,2,3,0,1,2,3,0,1,2,3,0,1,2,3,0,1,2,3,0,1,2,3,0,1,2,3,0,1,2,3,0,1,2,3,0,1,2,3,0,1,2,3,0,1,2,3,0,1,2,3,0,1,2,3,0,1,2,3,0,1,2,3,0,1,2,3,0,1,2,3,0,1,2,3,0,1,2,3,0,1,2,3,0,1,2,3,0,1,2,3,0,1,2,3,0,1,2,3,0,1,2,3,0,1,2,3,0,1,2,3,0,1,2,3,0,1,2,3,0,1,2,3,0,1,2,3,0,1,2,3,0,1,2,3,0,1,2,3,0,1,2,3,0,1,2,3,0,1,2,3,0,1,2,3,0,1,2,3,0,1,2,3,0,1,2,3,0,1,2,3,0,1,2,3,0,1,2,3,0,1,2,3,0,1,2,3,0,1,2,3,0,1,2,3,0,1,2,3,0,1,2,3,0,1,2,3,0,1,2,3,0,1,2,3,0,1,2,3,0,1,2,3,0,1,2,3,0,1,2,3,0,1,2,3,0,1,2,3,0,1,2,3,0,1,2,3,0,1,2,3,0,1,2,3,0,1,2,3,0,1,2,3,0,1,2,3,0,1,2,3,0,1,2,3,0,1,2,3,0,1,2,3,0,1,2,3,0,1,2,3,0,1,2,3],"trees":[{"base_weights":[7.1346806E-3,1.410861E0,-5.853774E-1,1.6654669E0,-6.0481745E-1,-5.499771E-2,-6.5852785E-1,1.7811481E0,-2.5079775E-1,-0E0,-9.364529E-2,4.5614663E-1,-4.832418E-1,-4.877302E-1,-9.597487E-2,1.8404969E0,-4.2344147E-1,-4.4234774E-1,4.050793E-1,-4.401187E-2,4.79124E-2,8.8588244E-1,-5.5533284E-1,2.5013673E-1,-8.7796725E-2,6.462533E-2,-5.7427704E-1,5.249846E-1,1.8511657E0,-8.2106374E-2,3.9430115E-2,6.462533E-2,-5.795733E-1,1.7907956E-1,-5.9044417E-2,1.2590073E0,-5.1207584E-1,5.7298867E-3,-8.855661E-2,1.7695193E-1,-7.634826E-2,-5.905946E-1,-5.7298867E-3,1.7144296E-1,-4.79124E-2,1.8579091E0,6.8497896E-2,-5.7298867E-3,-8.793476E-2,1.4176569E0,-1.8515603E-1,-5.7298867E-3,-8.03297E-2,-1.3018144E-2,-8.799332E-2,1.8646601E0,5.607935E-1,4.5039915E-2,1.4874576E0,-5.127313E-2,5.7298867E-3,1.9369237E0,1.6787617E0,-5.7298867E-3,1.405308E-1,1.5249219E0,3.9430115E-2,2.818615E-1,3.7920926E-2,2.8515007E-2,2.4529622E-1,2.2612296E-1,5.950873E-2],"categories":[],"categories_nodes":[],"categories_segments":[],"categories_sizes":[],"default_left":[0,0,0,0,0,0,0,0,0,0,0,0,0,0,0,0,0,0,0,0,0,0,0,0,0,0,0,0,0,0,0,0,0,0,0,0,0,0,0,0,0,0,0,0,0,0,0,0,0,0,0,0,0,0,0,0,0,0,0,0,0,0,0,0,0,0,0,0,0,0,0,0,0],"id":0,"left_children":[1,3,5,7,9,11,13,15,17,19,-1,21,23,25,-1,27,29,31,33,-1,-1,35,37,39,-1,-1,41,43,45,-1,-1,-1,47,-1,-1,49,51,-1,-1,-1,-1,53,-1,-1,-1,55,-1,-1,-1,57,59,-1,-1,-1,-1,61,63,-1,65,-1,-1,67,69,-1,-1,71,-1,-1,-1,-1,-1,-1,-1],"loss_changes":[2.2658484E3,4.1742126E2,7.3999146E1,1.6072986E2,2.5144005E0,5.1882133E1,2.9431152E-1,9.079224E1,5.7236E0,9.8474675E-1,0E0,4.7969666E1,1.2119738E1,4.9465017E0,0E0,6.505371E0,2.345496E0,4.7562118E0,8.272471E0,0E0,0E0,4.15562E1,1.3549433E0,1.6425385E1,0E0,0E0,1.8741608E-1,5.8379316E0,3.5146484E0,0E0,0E0,0E0,2.0549488E-1,0E0,0E0,1.4986816E1,1.1269283E-1,0E0,0E0,0E0,0E0,8.144379E-2,0E0,0E0,0E0,2.7575684E0,0E0,0E0,0E0,2.7594452E0,4.2405343E-1,0E0,0E0,0E0,0E0,8.364258E-1,1.9979119E0,0E0,9.037857E-1,0E0,0E0,6.305908E0,3.4334106E0,0E0,0E0,9.7343445E-2,0E0,0E0,0E0,0E0,0E0,0E0,0E0],"parents":[2147483647,0,0,1,1,2,2,3,3,4,4,5,5,6,6,7,7,8,8,9,9,11,11,12,12,13,13,15,15,16,16,17,17,18,18,21,21,22,22,23,23,26,26,27,27,28,28,32,32,35,35,36,36,41,41,45,45,49,49,50,50,55,55,56,56,58,58,61,61,62,62,65,65],"right_children":[2,4,6,8,10,12,14,16,18,20,-1,22,24,26,-1,28,30,32,34,-1,-1,36,38,40,-1,-1,42,44,46,-1,-1,-1,48,-1,-1,50,52,-1,-1,-1,-1,54,-1,-1,-1,56,-1,-1,-1,58,60,-1,-1,-1,-1,62,64,-1,66,-1,-1,68,70,-1,-1,72,-1,-1,-1,-1,-1,-1,-1],"split_conditions":[1.5915582E1,3.8849719E0,1.7923328E1,1.1029349E2,3.9877E0,2.7618847E0,1.83016E1,3.349806E1,1.1423811E0,2.57414E1,-9.364529E-2,3.400174E1,5.2018255E-1,-8.337E-1,-9.597487E-2,2.633317E1,2.3533537E0,1.1595649E1,1.996E0,-4.401187E-2,4.79124E-2,1.08618E2,3.361995E1,3.843E0,-8.7796725E-2,6.462533E-2,2.8923758E1,2.7534366E0,3.37217E1,-8.2106374E-2,3.9430115E-2,6.462533E-2,2.8563719E1,1.7907956E-1,-5.9044417E-2,5.6134567E1,5.17647E1,5.7298867E-3,-8.855661E-2,1.7695193E-1,-7.634826E-2,4.4224814E-1,-5.7298867E-3,1.7144296E-1,-4.79124E-2,3.8223E0,6.8497896E-2,-5.7298867E-3,-8.793476E-2,1.838338E1,2.236248E1,-5.7298867E-3,-8.03297E-2,-1.3018144E-2,-8.799332E-2,4.35136E1,3.852524E-1,4.5039915E-2,1.3867407E0,-5.127313E-2,5.7298867E-3,1.087962E2,8.39193E1,-5.7298867E-3,1.405308E-1,5.6251915E1,3.9430115E-2,2.818615E-1,3.7920926E-2,2.8515007E-2,2.4529622E-1,2.2612296E-1,5.950873E-2],"split_indices":[23,12,23,14,12,12,23,8,26,1,0,3,21,21,0,8,5,23,12,0,0,14,7,12,0,0,1,21,7,0,0,0,3,0,0,4,4,0,0,0,0,21,0,0,0,12,0,0,0,1,1,0,0,0,0,10,22,0,22,0,0,14,14,0,0,9,0,0,0,0,0,0,0],"split_type":[0,0,0,0,0,0,0,0,0,0,0,0,0,0,0,0,0,0,0,0,0,0,0,0,0,0,0,0,0,0,0,0,0,0,0,0,0,0,0,0,0,0,0,0,0,0,0,0,0,0,0,0,0,0,0,0,0,0,0,0,0,0,0,0,0,0,0,0,0,0,0,0,0],"sum_hessian":[2.719875E3,8.06625E2,1.91325E3,7.16625E2,9E1,2.32875E2,1.680375E3,6.76125E2,4.05E1,5.625E0,8.4375E1,1.0575E2,1.27125E2,5.2125E1,1.62825E3,6.58875E2,1.725E1,3.225E1,8.25E0,2.625E0,3E0,7.4625E1,3.1125E1,1.7625E1,1.095E2,3.375E0,4.875E1,6.375E0,6.525E2,1.5E1,2.25E0,3.375E0,2.8875E1,3.75E0,4.5E0,5.925E1,1.5375E1,2.25E0,2.8875E1,7.5E0,1.0125E1,4.65E1,2.25E0,3.375E0,3E0,6.48375E2,4.125E0,2.25E0,2.6625E1,5.3625E1,5.625E0,2.25E0,1.3125E1,2.625E0,4.3875E1,6.43875E2,4.5E0,4.125E0,4.95E1,3.375E0,2.25E0,4.485E2,1.95375E2,2.25E0,2.25E0,4.725E1,2.25E0,4.45125E2,3.375E0,2.625E0,1.9275E2,4.4625E1,2.625E0],"tree_param":{"num_deleted":"0","num_feature":"27","num_nodes":"73","size_leaf_vector":"1"}},{"base_weights":[6.211359E-3,5.8484346E-1,-6.5451384E-1,-5.59838E-1,1.6390337E0,-0E0,-6.568056E-1,-6.494058E-1,1.2939667E0,1.8671565E0,6.720415E-1,-4.6234173E-1,-9.581936E-2,-6.567317E-1,5.4198857E-2,2.6488754E-1,-6.9761544E-2,8.1213826E-1,1.9323336E0,1.2817359E0,-1.8648541E-1,-8.991106E-2,4.345868E-1,1.199614E-1,-9.611349E-2,-5.184571E-1,2.5648364E-1,1.9558547E0,-1.933347E-2,-3.2054693E-1,1.4675661E0,-3.939575E-1,1.7911012E-1,1.3398129E-1,-3.9430115E-2,-5.127313E-2,1.0683057E-1,-5.7298867E-3,-8.10906E-2,6.8497896E-2,2.842716E-1,5.950873E-2,-5.6768905E-2,-6.738143E-2,5.7298867E-3,-4.5807555E-2,1.6220428E0,4.345868E-1,-5.00437E-1,7.313034E-2,-6.1073285E-2,1.6953003E0,-3.9430115E-2,1.3398129E-1,-3.9430115E-2,2.5518608E-1,-5.894008E-1,8.249183E-1,2.599388E-1,-3.9430115E-2,1.0683057E-1,-0E0,-9.101094E-2,2.0994753E-1,-5.127313E-2],"categories":[],"categories_nodes":[],"categories_segments":[],"categories_sizes":[],"default_left":[0,0,0,0,0,0,0,0,0,0,0,0,0,0,0,0,0,0,0,0,0,0,0,0,0,0,0,0,0,0,0,0,0,0,0,0,0,0,0,0,0,0,0,0,0,0,0,0,0,0,0,0,0,0,0,0,0,0,0,0,0,0,0,0,0],"id":1,"left_children":[1,3,5,7,9,-1,11,13,15,17,19,21,-1,23,-1,-1,-1,25,27,29,31,-1,33,35,-1,37,-1,39,41,43,45,47,-1,-1,-1,-1,-1,-1,-1,-1,-1,-1,-1,-1,-1,49,51,53,55,-1,-1,57,-1,-1,-1,59,61,63,-1,-1,-1,-1,-1,-1,-1],"loss_changes":[1.0575957E3,1.7821858E3,2.1011353E0,1.19152725E2,1.6613232E2,0E0,3.2843018E-1,5.677368E0,3.3845966E1,3.8548096E1,7.945457E1,6.6783237E0,0E0,4.2148438E0,0E0,0E0,0E0,5.3291054E1,2.7458008E1,2.763005E1,1.9604244E1,0E0,3.2646146E0,2.9099495E0,0E0,1.2097645E-1,0E0,4.489258E0,1.7355179E0,7.3560715E-1,1.9297195E1,5.5430746E0,0E0,0E0,0E0,0E0,0E0,0E0,0E0,0E0,0E0,0E0,0E0,0E0,0E0,2.3095977E0,1.1481964E1,3.2646146E0,3.9331522E0,0E0,0E0,2.2760925E0,0E0,0E0,0E0,2.232684E0,1.1119785E0,9.839342E0,0E0,0E0,0E0,0E0,0E0,0E0,0E0],"parents":[2147483647,0,0,1,1,2,2,3,3,4,4,6,6,7,7,8,8,9,9,10,10,11,11,13,13,17,17,18,18,19,19,20,20,22,22,23,23,25,25,27,27,28,28,29,29,30,30,31,31,45,45,46,46,47,47,48,48,51,51,55,55,56,56,57,57],"right_children":[2,4,6,8,10,-1,12,14,16,18,20,22,-1,24,-1,-1,-1,26,28,30,32,-1,34,36,-1,38,-1,40,42,44,46,48,-1,-1,-1,-1,-1,-1,-1,-1,-1,-1,-1,-1,-1,50,52,54,56,-1,-1,58,-1,-1,-1,60,62,64,-1,-1,-1,-1,-1,-1,-1],"split_conditions":[3.7949615E1,3.74409E1,1.1328632E1,1.7923328E1,3.7816086E1,-0E0,3.79822E1,2.002902E2,6.0976227E1,1.53132E1,2.062747E1,8.2232184E2,-9.581936E-2,4.0571095E1,5.4198857E-2,2.6488754E-1,-6.9761544E-2,3.7520004E1,2.78366E1,2.633375E1,7.8989703E2,-8.991106E-2,1.7240834E2,1.9060925E1,-9.611349E-2,4.9E1,2.5648364E-1,3.3931136E-1,9.821388E1,3.6254948E1,1.6456E0,2.0663624E1,1.7911012E-1,1.3398129E-1,-3.9430115E-2,-5.127313E-2,1.0683057E-1,-5.7298867E-3,-8.10906E-2,6.8497896E-2,2.842716E-1,5.950873E-2,-5.6768905E-2,-6.738143E-2,5.7298867E-3,2.662E-1,6.619643E1,6.722346E1,8.631472E1,7.313034E-2,-6.1073285E-2,1.4858185E2,-3.9430115E-2,1.3398129E-1,-3.9430115E-2,3.731715E1,2.1073822E1,3.7870716E1,2.599388E-1,-3.9430115E-2,1.0683057E-1,-0E0,-9.101094E-2,2.0994753E-1,-5.127313E-2],"split_indices":[18,18,23,23,18,0,18,11,2,23,23,6,0,2,0,0,0,18,23,2,6,0,11,1,0,2,0,12,14,0,12,0,0,0,0,0,0,0,0,0,0,0,0,0,0,22,9,9,15,0,0,6,0,0,0,0,23,18,0,0,0,0,0,0,0],"split_type":[0,0,0,0,0,0,0,0,0,0,0,0,0,0,0,0,0,0,0,0,0,0,0,0,0,0,0,0,0,0,0,0,0,0,0,0,0,0,0,0,0,0,0,0,0,0,0,0,0,0,0,0,0,0,0,0,0,0,0,0,0,0,0,0,0],"sum_hessian":[2.76225E3,1.473E3,1.28925E3,7.065E2,7.665E2,4.125E0,1.285125E3,6.75375E2,3.1125E1,6.18375E2,1.48125E2,4.05E1,1.244625E3,6.71625E2,3.75E0,2.4E1,7.125E0,3.7875E1,5.805E2,8.625E1,6.1875E1,3.525E1,5.25E0,5.625E0,6.66E2,1.6125E1,2.175E1,5.7375E2,6.75E0,8.625E0,7.7625E1,5.55E1,6.375E0,3E0,2.25E0,3.375E0,2.25E0,2.25E0,1.3875E1,4.125E0,5.69625E2,2.625E0,4.125E0,6.375E0,2.25E0,7.125E0,7.05E1,5.25E0,5.025E1,2.25E0,4.875E0,6.825E1,2.25E0,3E0,2.25E0,4.5E0,4.575E1,9.375E0,5.8875E1,2.25E0,2.25E0,3E0,4.275E1,6E0,3.375E0],"tree_param":{"num_deleted":"0","num_feature":"27","num_nodes":"65","size_leaf_vector":"1"}},{"base_weights":[1.727773E-2,-6.3757807E-1,5.9658325E-1,-6.513718E-1,1.1822051E0,1.6387391E0,-6.112396E-1,-6.536791E-1,3.9430115E-2,2.0177409E-1,4.79124E-2,4.4218406E-1,1.8180467E0,2.0949076E-1,-6.5477055E-1,-6.552151E-1,5.7298867E-3,2.7366709E-2,1.5610904E0,1.8314694E0,-0E0,7.04794E-1,-4.4003156E-1,-3.9774618E-1,-9.56286E-2,-0E0,-6.567478E-1,-3.145885E-1,2.4390844E-1,-0E0,1.7109914E0,1.8620971E0,8.7648153E-1,3.9430115E-2,-4.401187E-2,1.0750289E0,-5.9044417E-2,-7.751697E-2,-0E0,3.9430115E-2,-5.2433246E-1,-6.5828615E-1,-4.246573E-3,-4.2094326E-1,3.845236E-1,5.950873E-2,2.6169112E-1,1.2512033E0,1.8984103E0,1.4083512E0,-0E0,-5.7298867E-3,1.2774525E0,-8.178301E-2,-5.7298867E-3,-9.560198E-2,-2.1079783E-1,-5.601179E-1,-9.555013E-3,1.5410343E-1,-5.4198857E-2,-1.136571E-1,1.5885595E0,2.7767715E-1,1.1142466E0,2.214849E-1,3.9430115E-2,1.0529166E-1,-6.738143E-2,5.7298867E-3,2.1310861E-1,3.9430115E-2,-6.602494E-2,5.7298867E-3,-6.022352E-1,-3.494596E-1,1.3398129E-1,-6.602494E-2,7.313034E-2,-0E0,1.7094741E0,2.4390844E-1,-1.933347E-2,-5.7298867E-3,-9.028483E-2,4.246573E-3,-7.429758E-2,2.6590422E-1,1.025737E-1,7.313034E-2,-5.9044417E-2],"categories":[],"categories_nodes":[],"categories_segments":[],"categories_sizes":[],"default_left":[0,0,0,0,0,0,0,0,0,0,0,0,0,0,0,0,0,0,0,0,0,0,0,0,0,0,0,0,0,0,0,0,0,0,0,0,0,0,0,0,0,0,0,0,0,0,0,0,0,0,0,0,0,0,0,0,0,0,0,0,0,0,0,0,0,0,0,0,0,0,0,0,0,0,0,0,0,0,0,0,0,0,0,0,0,0,0,0,0,0,0],"id":2,"left_children":[1,3,5,7,9,11,13,15,-1,-1,-1,17,19,21,23,25,-1,27,29,31,33,35,37,39,-1,-1,41,43,-1,-1,45,47,49,-1,-1,51,-1,-1,-1,-1,53,55,-1,57,59,-1,-1,61,63,65,67,-1,69,-1,-1,-1,71,73,75,-1,-1,77,79,-1,81,-1,-1,-1,-1,-1,-1,-1,-1,-1,83,85,-1,-1,-1,-1,87,-1,89,-1,-1,-1,-1,-1,-1,-1,-1],"loss_changes":[1.0474396E3,3.3925537E1,1.8468108E3,3.234375E0,3.4482765E-1,1.6652588E2,2.4723404E1,1.6248169E0,0E0,0E0,0E0,4.8376045E1,1.7144531E1,1.2116155E1,1.12579346E-1,1.1243286E0,0E0,4.6493397E1,6.19339E0,1.5617676E1,7.5063527E-1,9.838346E0,5.515559E-1,2.1711402E0,0E0,0E0,9.6868896E-1,5.346517E0,0E0,0E0,9.927139E-1,8.649902E0,1.2143648E1,0E0,0E0,4.272892E0,0E0,0E0,0E0,0E0,1.2869883E-1,7.4786377E-1,0E0,3.224597E0,5.9715443E0,0E0,0E0,2.0790413E1,4.411621E0,7.60231E-1,4.4952908E0,0E0,2.8642445E0,0E0,0E0,0E0,1.5357003E0,1.3468838E0,6.1285744E0,0E0,0E0,2.6379342E0,6.3039474E0,0E0,1.4079103E1,0E0,0E0,0E0,0E0,0E0,0E0,0E0,0E0,0E0,2.3903179E-1,1.109193E0,0E0,0E0,0E0,0E0,6.4662933E-1,0E0,2.182617E0,0E0,0E0,0E0,0E0,0E0,0E0,0E0,0E0],"parents":[2147483647,0,0,1,1,2,2,3,3,4,4,5,5,6,6,7,7,11,11,12,12,13,13,14,14,15,15,17,17,18,18,19,19,20,20,21,21,22,22,23,23,26,26,27,27,30,30,31,31,32,32,35,35,40,40,41,41,43,43,44,44,47,47,48,48,49,49,50,50,52,52,56,56,57,57,58,58,61,61,62,62,64,64,74,74,75,75,80,80,82,82],"right_children":[2,4,6,8,10,12,14,16,-1,-1,-1,18,20,22,24,26,-1,28,30,32,34,36,38,40,-1,-1,42,44,-1,-1,46,48,50,-1,-1,52,-1,-1,-1,-1,54,56,-1,58,60,-1,-1,62,64,66,68,-1,70,-1,-1,-1,72,74,76,-1,-1,78,80,-1,82,-1,-1,-1,-1,-1,-1,-1,-1,-1,84,86,-1,-1,-1,-1,88,-1,90,-1,-1,-1,-1,-1,-1,-1,-1],"split_conditions":[3.7816086E1,2.78366E1,3.8318165E1,4.08092E1,2.7263596E0,3.7905277E1,3.8377E1,2.3678324E1,3.9430115E-2,2.0177409E-1,4.79124E-2,6.498727E1,4.59553E1,1.0277852E2,3.84151E1,2.0542467E1,5.7298867E-3,3.6695972E1,2.03911E1,3.82925E1,1.13E2,2.3160707E1,7.9375714E-1,1.602527E1,-9.56286E-2,-0E0,2.71478E1,5.484E0,2.4390844E-1,-0E0,2.0663624E1,3.7949615E1,2.1720287E1,3.9430115E-2,-4.401187E-2,2.6040165E1,-5.9044417E-2,-7.751697E-2,-0E0,3.9430115E-2,9.178E-1,3.78049E1,-4.246573E-3,3.7878128E1,4.2E1,5.950873E-2,2.6169112E-1,1.6469816E1,2.92337E1,1.032549E2,9.359464E1,-5.7298867E-3,2.1570127E1,-8.178301E-2,-5.7298867E-3,-9.560198E-2,7.288071E-1,-1.7233118E0,3.0211613E0,1.5410343E-1,-5.4198857E-2,2.6418517E0,2.7451649E1,2.7767715E-1,3.80946E1,2.214849E-1,3.9430115E-2,1.0529166E-1,-6.738143E-2,5.7298867E-3,2.1310861E-1,3.9430115E-2,-6.602494E-2,5.7298867E-3,2.1699234E1,2.0190127E0,1.3398129E-1,-6.602494E-2,7.313034E-2,-0E0,4.981783E1,2.4390844E-1,3.2118008E1,-5.7298867E-3,-9.028483E-2,4.246573E-3,-7.429758E-2,2.6590422E-1,1.025737E-1,7.313034E-2,-5.9044417E-2],"split_indices":[18,23,18,3,13,18,18,20,0,0,0,9,8,15,18,2,0,8,1,18,15,23,22,23,0,0,23,20,0,0,0,18,23,0,0,0,0,0,0,0,22,18,0,18,2,0,0,23,23,15,15,0,1,0,0,0,20,20,13,0,0,20,8,0,18,0,0,0,0,0,0,0,0,0,0,13,0,0,0,0,2,0,0,0,0,0,0,0,0,0,0],"split_type":[0,0,0,0,0,0,0,0,0,0,0,0,0,0,0,0,0,0,0,0,0,0,0,0,0,0,0,0,0,0,0,0,0,0,0,0,0,0,0,0,0,0,0,0,0,0,0,0,0,0,0,0,0,0,0,0,0,0,0,0,0,0,0,0,0,0,0,0,0,0,0,0,0,0,0,0,0,0,0,0,0,0,0,0,0,0,0,0,0,0,0],"sum_hessian":[2.757E3,1.29375E3,1.46325E3,1.2855E3,8.25E0,7.8525E2,6.78E2,1.28325E3,2.25E0,5.25E0,3E0,1.035E2,6.8175E2,3.3375E1,6.44625E2,1.281E3,2.25E0,7.725E1,2.625E1,6.76875E2,4.875E0,1.9125E1,1.425E1,1.9125E1,6.255E2,3.375E0,1.277625E3,6.525E1,1.2E1,2.625E0,2.3625E1,6.53625E2,2.325E1,2.25E0,2.625E0,1.4625E1,4.5E0,1.0875E1,3.375E0,2.25E0,1.6875E1,1.273875E3,3.75E0,5.775E1,7.5E0,2.625E0,2.1E1,4.125E1,6.12375E2,1.3875E1,9.375E0,2.25E0,1.2375E1,1.4625E1,2.25E0,1.265625E3,8.25E0,4.2E1,1.575E1,3.75E0,3.75E0,8.25E0,3.3E1,5.93625E2,1.875E1,1.1625E1,2.25E0,3E0,6.375E0,2.25E0,1.0125E1,2.25E0,6E0,2.25E0,3.975E1,1.275E1,3E0,6E0,2.25E0,2.625E0,3.0375E1,1.2E1,6.75E0,2.25E0,3.75E1,3.75E0,9E0,2.5125E1,5.25E0,2.25E0,4.5E0],"tree_param":{"num_deleted":"0","num_feature":"27","num_nodes":"91","size_leaf_vector":"1"}},{"base_weights":[-6.9770403E-4,-6.274886E-1,1.9530219E0,-6.485281E-1,4.9304884E-2,7.585421E-1,2.869029E-1,-6.557735E-1,-1.6903074E-1,-3.001476E-1,8.2570654E-1,5.3412534E-2,2.1970065E-1,-9.596748E-2,-5.068029E-1,-4.9629158E-1,9.534682E-1,2.9949403E-1,-4.8162404E-1,-5.4766774E-2,1.709627E-1,-3.0793858E-1,1.405308E-1,-5.834279E-1,4.7707833E-2,-0E0,-8.584886E-2,5.7298867E-3,1.7907956E-1,-4.0157955E-2,1.2538584E-1,-5.78504E-1,-0E0,-5.127313E-2,3.9430115E-2,5.7298867E-3,-6.602494E-2,-6.22596E-1,-1.3309397E-1,-1.6813797E-1,9.0502456E-2,-3.9430115E-2,3.9430115E-2,-8.78215E-2,-5.7298867E-3,7.313034E-2,-5.127313E-2,-2.280493E-1,-9.331573E-2,3.9430115E-2,-5.0192397E-2,3.7920926E-2,-6.602494E-2,-5.6768905E-2,5.7298867E-3],"categories":[],"categories_nodes":[],"categories_segments":[],"categories_sizes":[],"default_left":[0,0,0,0,0,0,0,0,0,0,0,0,0,0,0,0,0,0,0,0,0,0,0,0,0,0,0,0,0,0,0,0,0,0,0,0,0,0,0,0,0,0,0,0,0,0,0,0,0,0,0,0,0,0,0],"id":3,"left_children":[1,3,5,7,9,11,-1,13,15,17,19,21,-1,-1,23,25,27,29,31,33,-1,35,-1,37,39,41,-1,-1,-1,-1,-1,43,45,-1,-1,-1,-1,47,49,51,-1,-1,-1,-1,-1,-1,-1,53,-1,-1,-1,-1,-1,-1,-1],"loss_changes":[3.3719958E3,2.995465E1,1.9541748E1,6.529175E0,1.812413E1,9.850379E0,0E0,1.1074219E0,1.3139034E1,5.3111553E0,7.015093E0,4.9896917E0,0E0,0E0,4.670391E0,1.3248124E0,1.5659266E0,4.421019E0,1.8322783E0,9.760265E-1,0E0,7.049136E-1,0E0,1.2113972E0,2.1169338E0,6.375639E-1,0E0,0E0,0E0,0E0,0E0,2.0393944E-1,1.776809E0,0E0,0E0,0E0,0E0,1.4546204E-1,1.1425183E0,1.7236136E0,0E0,0E0,0E0,0E0,0E0,0E0,0E0,5.181656E-1,0E0,0E0,0E0,0E0,0E0,0E0,0E0],"parents":[2147483647,0,0,1,1,2,2,3,3,4,4,5,5,7,7,8,8,9,9,10,10,11,11,14,14,15,15,16,16,17,17,18,18,19,19,21,21,23,23,24,24,25,25,31,31,32,32,37,37,38,38,39,39,47,47],"right_children":[2,4,6,8,10,12,-1,14,16,18,20,22,-1,-1,24,26,28,30,32,34,-1,36,-1,38,40,42,-1,-1,-1,-1,-1,44,46,-1,-1,-1,-1,48,50,52,-1,-1,-1,-1,-1,-1,-1,54,-1,-1,-1,-1,-1,-1,-1],"split_conditions":[3.8318165E1,3.825717E1,3.83564E1,6.88433E1,2.211286E1,5.8211475E1,2.869029E-1,3.81909E1,3.81686E1,1.0191449E0,2E0,2.3160707E1,2.1970065E-1,-9.596748E-2,3.077876E2,3.8445312E1,1.6852E0,3.5432476E1,3.9316468E0,3.605559E1,1.709627E-1,2.0190127E0,1.405308E-1,2.49379E1,2.0294213E0,3.7914265E1,-8.584886E-2,5.7298867E-3,1.7907956E-1,-4.0157955E-2,1.2538584E-1,5.2109566E1,2.49407E1,-5.127313E-2,3.9430115E-2,5.7298867E-3,-6.602494E-2,3.0401773E1,1.0873404E0,7.107185E-1,9.0502456E-2,-3.9430115E-2,3.9430115E-2,-8.78215E-2,-5.7298867E-3,7.313034E-2,-5.127313E-2,4.3649E0,-9.331573E-2,3.9430115E-2,-5.0192397E-2,3.7920926E-2,-6.602494E-2,-5.6768905E-2,5.7298867E-3],"split_indices":[18,18,18,19,23,17,0,18,18,25,13,23,0,0,11,2,5,19,13,3,0,13,0,23,5,18,0,0,0,0,0,19,1,0,0,0,0,19,5,5,0,0,0,0,0,0,0,21,0,0,0,0,0,0,0],"split_type":[0,0,0,0,0,0,0,0,0,0,0,0,0,0,0,0,0,0,0,0,0,0,0,0,0,0,0,0,0,0,0,0,0,0,0,0,0,0,0,0,0,0,0,0,0,0,0,0,0,0,0,0,0,0,0],"sum_hessian":[2.749875E3,2.083125E3,6.6675E2,2.020875E3,6.225E1,1.7625E1,6.49125E2,1.989375E3,3.15E1,4.35E1,1.875E1,1.05E1,7.125E0,1.887E3,1.02375E2,2.55E1,6E0,9.375E0,3.4125E1,5.625E0,1.3125E1,8.25E0,2.25E0,9.0375E1,1.2E1,4.5E0,2.1E1,2.25E0,3.75E0,4.875E0,4.5E0,2.85E1,5.625E0,3.375E0,2.25E0,2.25E0,6E0,8.175E1,8.625E0,9.375E0,2.625E0,2.25E0,2.25E0,2.625E1,2.25E0,2.25E0,3.375E0,6.375E0,7.5375E1,2.25E0,6.375E0,3.375E0,6E0,4.125E0,2.25E0],"tree_param":{"num_deleted":"0","num_feature":"27","num_nodes":"55","size_leaf_vector":"1"}},{"base_weights":[-3.4070686E-3,9.9510014E-1,-5.6244594E-1,1.2292818E0,-5.7624584E-1,-8.236828E-2,-6.201546E-1,1.367252E0,-5.869757E-1,-6.2604755E-1,-1.5968978E-1,-5.762406E-1,3.8689408E-1,-4.050443E-1,-9.24487E-2,1.4447293E0,-5.645978E-1,-0E0,-8.936722E-2,-6.8070353E-3,-9.1755874E-2,4.992921E-1,-7.527449E-2,4.019956E-2,-6.0668373E-1,1.0022132E0,-3.9494288E-1,-5.932353E-1,-3.8969498E-2,-2.2316912E-1,1.4871035E0,-2.2860393E-3,-8.5648485E-2,-5.3241714E-3,1.2297382E-1,-8.922648E-2,-3.464937E-3,1.3652514E0,-4.4766834E-1,-8.281252E-2,1.2522194E-1,-8.732078E-2,-3.6122722E-3,4.0880293E-1,-8.327054E-2,3.1900603E-1,-5.1031977E-1,1.492118E0,1.5428299E-2,2.0439155E-1,3.105842E-2,-3.6636705E-3,-7.222912E-2,5.704378E-1,-5.776271E-2,-4.6427097E-2,1.7832573E-1,-4.509071E-2,1.2435526E-1,-5.979321E-3,-8.045347E-2,1.4954193E0,8.683679E-3,-1.3037181E-2,1.4291865E-1,-2.6296148E-1,1.1436922E-1,1.4996258E0,5.147144E-1,1.6289438E-1,-7.382892E-2,2.180855E-1,1.13548815E-1,8.430427E-5,1.05284944E-1,-4.407707E-2,9.675186E-2],"categories":[],"categories_nodes":[],"categories_segments":[],"categories_sizes":[],"default_left":[0,0,0,0,0,0,0,0,0,0,0,0,0,0,0,0,0,0,0,0,0,0,0,0,0,0,0,0,0,0,0,0,0,0,0,0,0,0,0,0,0,0,0,0,0,0,0,0,0,0,0,0,0,0,0,0,0,0,0,0,0,0,0,0,0,0,0,0,0,0,0,0,0,0,0,0,0],"id":4,"left_children":[1,3,5,7,9,11,13,15,17,19,21,23,25,27,-1,29,31,-1,-1,-1,-1,33,-1,-1,35,37,39,41,43,45,47,-1,-1,-1,-1,-1,-1,49,51,-1,53,-1,-1,55,-1,57,59,61,-1,-1,-1,-1,-1,63,-1,65,-1,-1,-1,-1,-1,67,-1,-1,-1,69,-1,71,73,75,-1,-1,-1,-1,-1,-1,-1],"loss_changes":[1.5239733E3,3.6220728E2,4.816339E1,2.1578699E2,2.197754E0,4.4742718E1,5.393921E0,1.2080957E2,1.1553974E0,2.3690414E-1,4.611859E0,2.9005203E0,4.8506668E1,8.812559E0,0E0,5.510498E1,2.573309E-1,0E0,0E0,0E0,0E0,1.6066241E0,0E0,0E0,2.8661346E-1,3.1061543E1,4.4171267E0,2.5862122E-1,1.1939508E1,3.590354E0,4.3094482E0,0E0,0E0,0E0,0E0,0E0,0E0,1.3090515E0,7.445431E-2,0E0,3.4563153E0,0E0,0E0,1.0530124E1,0E0,3.441429E0,6.820226E-2,2.814331E0,0E0,0E0,0E0,0E0,0E0,2.6764817E0,0E0,3.6804183E0,0E0,0E0,0E0,0E0,0E0,8.125E-1,0E0,0E0,0E0,2.061904E0,0E0,6.7822266E-1,4.82131E-1,2.252578E0,0E0,0E0,0E0,0E0,0E0,0E0,0E0],"parents":[2147483647,0,0,1,1,2,2,3,3,4,4,5,5,6,6,7,7,8,8,9,9,10,10,11,11,12,12,13,13,15,15,16,16,21,21,24,24,25,25,26,26,27,27,28,28,29,29,30,30,37,37,38,38,40,40,43,43,45,45,46,46,47,47,53,53,55,55,61,61,65,65,67,67,68,68,69,69],"right_children":[2,4,6,8,10,12,14,16,18,20,22,24,26,28,-1,30,32,-1,-1,-1,-1,34,-1,-1,36,38,40,42,44,46,48,-1,-1,-1,-1,-1,-1,50,52,-1,54,-1,-1,56,-1,58,60,62,-1,-1,-1,-1,-1,64,-1,66,-1,-1,-1,-1,-1,68,-1,-1,-1,70,-1,72,74,76,-1,-1,-1,-1,-1,-1,-1],"split_conditions":[3.48518E1,6.56323E1,3.7339485E1,3.9281E0,8.558292E2,3.197399E1,3.932359E1,5.6744915E1,3.9877E0,2.01817E2,1.8721E0,4.6404064E-1,3.0390992E0,3.0211613E0,-9.24487E-2,2.9631839E0,3.8483936E1,-0E0,-8.936722E-2,-6.8070353E-3,-9.1755874E-2,1.3663422E0,-7.527449E-2,4.019956E-2,3.1928343E1,1.9091183E2,3.8567185E0,3.0816E1,6.49055E1,3.007995E1,1.100847E2,-2.2860393E-3,-8.5648485E-2,-5.3241714E-3,1.2297382E-1,-8.922648E-2,-3.464937E-3,7.83121E2,1.4858185E2,-8.281252E-2,3.9281E0,-8.732078E-2,-3.6122722E-3,1.020836E2,-8.327054E-2,2.8121136E1,1.25212875E2,1.6263E0,1.5428299E-2,2.0439155E-1,3.105842E-2,-3.6636705E-3,-7.222912E-2,2.60807E1,-5.776271E-2,6.555258E0,1.7832573E-1,-4.509071E-2,1.2435526E-1,-5.979321E-3,-8.045347E-2,6.9051156E0,8.683679E-3,-1.3037181E-2,1.4291865E-1,1.238906E2,1.1436922E-1,5.501112E1,8.512719E-1,1.1535823E2,-7.382892E-2,2.180855E-1,1.13548815E-1,8.430427E-5,1.05284944E-1,-4.407707E-2,9.675186E-2],"split_indices":[19,17,19,12,6,3,19,9,12,11,12,12,12,13,0,13,17,0,0,0,0,12,0,0,3,11,13,1,17,19,15,0,0,0,0,0,0,6,6,0,12,0,0,14,0,3,11,22,0,0,0,0,0,1,0,5,0,0,0,0,0,5,0,0,0,11,0,9,12,11,0,0,0,0,0,0,0],"split_type":[0,0,0,0,0,0,0,0,0,0,0,0,0,0,0,0,0,0,0,0,0,0,0,0,0,0,0,0,0,0,0,0,0,0,0,0,0,0,0,0,0,0,0,0,0,0,0,0,0,0,0,0,0,0,0,0,0,0,0,0,0,0,0,0,0,0,0,0,0,0,0,0,0,0,0,0,0],"sum_hessian":[2.7262966E3,9.777459E2,1.7485507E3,8.514998E2,1.2624615E2,1.887793E2,1.5597714E3,7.920217E2,5.9478035E1,1.111386E2,1.5107545E1,9.209334E1,9.668595E1,1.2958824E2,1.4301832E3,7.6214215E2,2.9879618E1,2.9050925E0,5.6572945E1,2.2636023E0,1.08875E2,4.739573E0,1.0367972E1,2.2250981E0,8.986824E1,5.4018375E1,4.266758E1,8.4155685E1,4.5432552E1,1.8473991E1,7.4366815E2,2.1376321E0,2.7741985E1,2.2246277E0,2.514945E0,8.769947E1,2.168773E0,4.347861E1,1.0539763E1,3.214257E1,1.0525011E1,8.198574E1,2.1699505E0,2.469217E1,2.0740383E1,5.9201345E0,1.2553856E1,7.405737E2,3.0944185E0,4.104776E1,2.4308493E0,2.1716464E0,8.368117E0,5.935213E0,4.589798E0,1.6885273E1,7.8068953E0,2.8492644E0,3.07087E0,2.0990298E0,1.0454826E1,7.385505E2,2.023233E0,2.611489E0,3.323724E0,1.484078E1,2.0444927E0,7.3398395E2,4.5665193E0,5.2163124E0,9.624468E0,7.238493E2,1.0134657E1,2.3907642E0,2.1757553E0,2.7938547E0,2.4224575E0],"tree_param":{"num_deleted":"0","num_feature":"27","num_nodes":"77","size_leaf_vector":"1"}},{"base_weights":[1.0410245E-2,5.208658E-1,-6.2242335E-1,-5.2956367E-1,1.322879E0,-7.8566305E-2,-6.328633E-1,-6.369039E-1,9.3513674E-1,1.3696712E0,-2.610222E-1,1.3586901E-1,-3.343445E-1,-8.604769E-4,-6.35276E-1,3.7813827E-2,-6.4165866E-1,1.35909E0,-7.464721E-2,1.4318008E0,6.1681426E-1,1.3835435E-1,-5.427253E-1,1.1935044E-1,-8.05654E-2,4.3212485E-2,-4.6403494E-2,-4.9440363E-1,-9.287419E-2,-9.307824E-2,-8.146112E-3,5.229897E-1,2.0818834E-1,-1.5453435E-1,1.4476761E0,1.0346733E0,-4.3049547E-1,-8.232172E-3,-8.330692E-2,8.5177265E-2,-5.1632896E-2,3.671532E-2,-5.796953E-1,1.2799913E-1,-4.5846226E-3,-5.952993E-2,3.700448E-2,1.4603128E0,-0E0,1.7829895E-1,-5.7996523E-2,-7.9727136E-2,-0E0,1.3949247E-1,-6.301698E-2,-9.45856E-2,-8.870075E-2,1.472243E0,2.6216942E-1,6.8128176E-2,-5.614314E-2,7.564893E-2,-6.13452E-2,3.6824234E-2,-3.7689712E-2,-4.0266458E-2,1.0243871E-2,4.725361E-2,1.4767641E0,1.3779432E-1,-6.269818E-2,1.5356426E-1,2.1674994E-1],"categories":[],"categories_nodes":[],"categories_segments":[],"categories_sizes":[],"default_left":[0,0,0,0,0,0,0,0,0,0,0,0,0,0,0,0,0,0,0,0,0,0,0,0,0,0,0,0,0,0,0,0,0,0,0,0,0,0,0,0,0,0,0,0,0,0,0,0,0,0,0,0,0,0,0,0,0,0,0,0,0,0,0,0,0,0,0,0,0,0,0,0,0],"id":5,"left_children":[1,3,5,7,9,11,13,15,17,19,21,-1,23,25,27,-1,29,31,-1,33,35,-1,37,39,-1,-1,-1,41,-1,-1,-1,43,-1,45,47,49,51,-1,-1,-1,-1,53,55,-1,-1,-1,-1,57,59,-1,61,-1,63,-1,-1,65,-1,67,69,-1,-1,-1,-1,-1,-1,-1,-1,-1,71,-1,-1,-1,-1],"loss_changes":[8.84675E2,1.2790464E3,6.604889E0,1.04527985E2,6.487488E1,7.196535E0,1.6166382E0,3.0914917E0,2.9717403E1,3.663965E1,9.909409E0,0E0,2.550703E0,8.853554E-1,6.488037E-2,0E0,2.328186E-1,2.0471954E-1,0E0,2.029187E1,3.076206E1,0E0,8.904648E-2,2.4266253E0,0E0,0E0,0E0,3.102827E0,0E0,0E0,0E0,1.6809324E0,0E0,1.2437503E0,1.4407349E1,1.1155544E1,1.0682697E0,0E0,0E0,0E0,0E0,5.4908605E0,5.413456E-1,0E0,0E0,0E0,0E0,9.459595E0,1.8903611E0,0E0,2.3820634E0,0E0,5.676841E-1,0E0,0E0,3.0936527E-1,0E0,2.2983398E0,5.919879E0,0E0,0E0,0E0,0E0,0E0,0E0,0E0,0E0,0E0,2.3951416E0,0E0,0E0,0E0,0E0],"parents":[2147483647,0,0,1,1,2,2,3,3,4,4,5,5,6,6,7,7,8,8,9,9,10,10,12,12,13,13,14,14,16,16,17,17,19,19,20,20,22,22,23,23,27,27,31,31,33,33,34,34,35,35,36,36,41,41,42,42,47,47,48,48,50,50,52,52,55,55,57,57,58,58,68,68],"right_children":[2,4,6,8,10,12,14,16,18,20,22,-1,24,26,28,-1,30,32,-1,34,36,-1,38,40,-1,-1,-1,42,-1,-1,-1,44,-1,46,48,50,52,-1,-1,-1,-1,54,56,-1,-1,-1,-1,58,60,-1,62,-1,64,-1,-1,66,-1,68,70,-1,-1,-1,-1,-1,-1,-1,-1,-1,72,-1,-1,-1,-1],"split_conditions":[3.79257E1,3.74409E1,3.7949615E1,1.7516726E1,3.98274E1,2.8418013E1,1.1328632E1,2.82323E0,6.0976227E1,3.7863434E1,3.75838E1,1.3586901E-1,5.252111E1,1.003712E2,3.799792E1,3.7813827E-2,6.90348E1,1.7838882E1,-7.464721E-2,1.23036E1,6.50058E1,1.3835435E-1,-2.724E-1,3.537184E1,-8.05654E-2,4.3212485E-2,-4.6403494E-2,1.5389E1,-9.287419E-2,-9.307824E-2,-8.146112E-3,5.19996E1,2.0818834E-1,5.17406E1,2.74806E1,2.9854047E0,5E1,-8.232172E-3,-8.330692E-2,8.5177265E-2,-5.1632896E-2,5.776766E1,9.17801E1,1.2799913E-1,-4.5846226E-3,-5.952993E-2,3.700448E-2,1.1113542E2,3.774483E1,1.7829895E-1,5.070258E1,-7.9727136E-2,-3.8502827E-1,1.3949247E-1,-6.301698E-2,1.3992327E0,-8.870075E-2,1.1287955E0,3.77079E1,6.8128176E-2,-5.614314E-2,7.564893E-2,-6.13452E-2,3.6824234E-2,-3.7689712E-2,-4.0266458E-2,1.0243871E-2,4.725361E-2,1.53132E1,1.3779432E-1,-6.269818E-2,1.5356426E-1,2.1674994E-1],"split_indices":[18,18,18,23,7,3,23,13,2,18,18,0,4,14,18,0,17,23,0,23,10,0,20,3,0,0,0,23,0,0,0,4,0,17,23,5,2,0,0,0,0,17,14,0,0,0,0,17,18,0,4,0,24,0,0,20,0,13,18,0,0,0,0,0,0,0,0,0,23,0,0,0,0],"split_type":[0,0,0,0,0,0,0,0,0,0,0,0,0,0,0,0,0,0,0,0,0,0,0,0,0,0,0,0,0,0,0,0,0,0,0,0,0,0,0,0,0,0,0,0,0,0,0,0,0,0,0,0,0,0,0,0,0,0,0,0,0,0,0,0,0,0,0,0,0,0,0,0,0],"sum_hessian":[2.734656E3,1.514176E3,1.22048E3,6.5568353E2,8.584925E2,2.3910751E1,1.1965692E3,6.1219934E2,4.34842E1,8.343293E2,2.4163256E1,3.4476304E0,2.0463121E1,5.0813046E0,1.1914879E3,2.2774868E0,6.099219E2,3.3927643E1,9.556555E0,7.686172E2,6.571208E1,3.401778E0,2.0761478E1,6.5537205E0,1.3909401E1,2.1611369E0,2.9201677E0,6.1535034E1,1.1299529E3,6.075986E2,2.3232934E0,4.650352E0,2.927729E1,7.232865E0,7.6138434E2,4.721416E1,1.8497925E1,2.307299E0,1.845418E1,3.4067273E0,3.1469932E0,8.140284E0,5.339475E1,2.4397829E0,2.2105691E0,4.939489E0,2.293376E0,7.54985E2,6.39932E0,4.0026157E1,7.1880016E0,1.401943E1,4.478495E0,2.2641094E0,5.876174E0,4.5624075E0,4.8832344E1,7.4680585E2,8.179166E0,2.3419514E0,4.0573688E0,2.0910678E0,5.096934E0,2.3011541E0,2.177341E0,2.4460452E0,2.1163626E0,3.8106015E0,7.4299524E2,3.964953E0,4.2142134E0,4.147716E1,7.0151807E2],"tree_param":{"num_deleted":"0","num_feature":"27","num_nodes":"73","size_leaf_vector":"1"}},{"base_weights":[-1.6131786E-3,-3.22847E-1,1.9504055E-1,-4.4368762E-1,6.6840005E-1,3.351815E-1,-4.8181263E-1,-4.941702E-1,5.9447503E-1,7.93093E-1,-3.7429407E-1,6.633336E-1,2.1783486E-1,-1.7332539E-1,-5.794238E-1,-5.995672E-1,-3.4385768E-1,9.894144E-1,1.214497E-1,-2.6488986E-2,8.361544E-1,-7.131836E-2,2.5341404E-3,-3.6559454E-1,8.3782136E-1,4.5088276E-1,9.583928E-3,5.6777965E-2,-4.5375225E-1,1.20539285E-1,-5.964985E-1,-6.2276715E-1,-5.415349E-2,4.7817922E-1,-5.37839E-1,1.1183255E0,-5.0484035E-3,6.813802E-1,-1.8185017E-1,9.777455E-1,5.352217E-1,5.259857E-1,-5.4762197E-1,4.3540627E-1,9.891879E-1,5.80529E-1,-9.7638495E-2,-4.6911344E-2,8.664035E-1,6.2625587E-1,-2.4491343E-1,9.289166E-3,-5.2702385E-1,7.070485E-2,-3.552173E-2,-2.2593758E-3,-6.006674E-1,-9.153258E-2,5.6866724E-2,6.768721E-1,-3.9352018E-1,-2.6788357E-1,6.9212854E-1,-5.799766E-1,-7.679266E-2,1.7275813E-1,3.1924885E-2,1.4414404E-1,-5.71859E-3,1.05219245E-1,-6.760752E-2,1.2011157E0,6.637272E-1,-4.418007E-2,7.203996E-1,1.440861E-1,-7.8914985E-3,-2.7609493E-3,-5.6502944E-1,-1.3437727E-1,8.476613E-1,1.0472949E0,2.689763E-1,-2.578473E-1,6.960043E-1,4.213937E-1,-2.753614E-1,4.9632308E-1,-1.2874572E-1,1.0369512E0,-5.008569E-2,-1.0221743E-2,1.338576E-1,-3.52319E-1,5.0623957E-2,-8.450725E-2,-0E0,-3.845098E-1,-6.2084156E-1,1.3240187E-1,-0E0,-7.8637384E-2,4.4093836E-2,-4.541562E-1,3.1972673E-2,-4.1231353E-2,7.545823E-1,-1.2412496E-1,-6.091501E-1,7.3275095E-1,-4.3367285E-1,-4.4986013E-2,6.6170126E-2,4.091569E-2,1.8319574E-1,1.1404501E0,6.056352E-2,3.0984214E-1,1.6639403E-1,-1.0859951E-2,-8.442191E-2,6.101142E-1,-3.094792E-1,-2.1209607E-2,9.2498565E-1,2.5553143E-2,1.0784701E0,-2.2839338E-1,5.6669366E-1,-8.716731E-2,5.5368984E-1,2.4550904E-3,7.871156E-1,-6.4591594E-2,7.61924E-1,-0E0,-5.2485746E-1,9.819474E-1,-2.1989413E-1,-5.5800036E-2,-5.599775E-1,1.1371335E0,-6.607362E-3,-4.394241E-1,1.0389453E-2,-8.1529275E-2,2.265134E-1,-2.7341906E-3,-9.056932E-2,-7.270706E-2,-3.991067E-3,8.9041984E-1,1.6740164E-1,-7.628774E-2,5.858619E-1,3.40178E-2,-6.202253E-1,4.0602214E-3,1.3190149E-1,-1.3036525E-3,-4.9805766E-1,8.682581E-3,1.8152295E-1,-2.5956088E-1,6.334584E-1,-5.2112117E-2,5.359048E-1,-4.946857E-3,1.3567506E-1,4.0984017E-1,-4.575689E-1,1.0068034E0,1.3626872E-1,-3.5785396E-2,7.4668124E-2,1.7468722E-1,1.1035569E0,-5.5481263E-2,4.0962053E-3,7.173212E-1,-4.48838E-3,-2.2542201E-2,7.9988426E-1,-3.6811703E-1,5.4797935E-1,9.58428E-2,8.505489E-1,9.7202563E-1,-1.925548E-2,-7.70389E-2,3.156498E-1,-1.5919511E-1,-8.550921E-2,1.0868853E0,-4.0645577E-2,3.0112484E-1,-4.7286168E-1,4.0910937E-2,-4.088262E-1,-5.2846275E-2,-8.691892E-2,1.2067075E0,4.1158915E-2,-7.8849964E-2,-6.8141274E-2,-1.0371799E-2,7.571393E-2,6.0096502E-2,1.6799437E-1,-4.07641E-2,5.178262E-2,1.3166186E-1,-5.585515E-3,4.0535713E-3,-9.083258E-2,-7.808247E-2,-4.051488E-3,4.4340834E-2,-6.930337E-2,4.096824E-3,1.2297136E-1,1.1832243E-1,-4.6888012E-2,1.05790466E-1,-4.302327E-3,-7.849459E-2,-0E0,1.7534386E-1,8.39984E-2,7.79791E-2,-2.3543317E-2,1.0460728E-1,-3.106073E-2,1.8721649E-1,1.3902022E-1,1.3568087E-1,-4.057289E-3,1.2752443E-2,1.4617807E-1,-8.234091E-2,2.6114307E-2,-1.4112266E-2,9.977628E-2,1.0965553E-1,-7.014998E-2,1.2794098E-1,-5.0568517E-2,-0E0,1.656344E-1,-4.29939E-2,1.00473054E-1,3.022301E-3,-5.0433878E-2,1.7271775E-1,2.76584E-2,-2.9866055E-2,1.0688261E-1,-0E0,-7.975502E-2,-1.8980384E-2,4.986339E-2,1.00851186E-1,-6.815995E-2,4.133989E-2,-5.0059028E-2,6.6775136E-2,1.9130233E-1,-4.7447827E-2,2.55531E-2],"categories":[],"categories_nodes":[],"categories_segments":[],"categories_sizes":[],"default_left":[0,0,0,0,0,0,0,0,0,0,0,0,0,0,0,0,0,0,0,0,0,0,0,0,0,0,0,0,0,0,0,0,0,0,0,0,0,0,0,0,0,0,0,0,0,0,0,0,0,0,0,0,0,0,0,0,0,0,0,0,0,0,0,0,0,0,0,0,0,0,0,0,0,0,0,0,0,0,0,0,0,0,0,0,0,0,0,0,0,0,0,0,0,0,0,0,0,0,0,0,0,0,0,0,0,0,0,0,0,0,0,0,0,0,0,0,0,0,0,0,0,0,0,0,0,0,0,0,0,0,0,0,0,0,0,0,0,0,0,0,0,0,0,0,0,0,0,0,0,0,0,0,0,0,0,0,0,0,0,0,0,0,0,0,0,0,0,0,0,0,0,0,0,0,0,0,0,0,0,0,0,0,0,0,0,0,0,0,0,0,0,0,0,0,0,0,0,0,0,0,0,0,0,0,0,0,0,0,0,0,0,0,0,0,0,0,0,0,0,0,0,0,0,0,0,0,0,0,0,0,0,0,0,0,0,0,0,0,0,0,0,0,0,0,0,0,0,0,0,0,0,0,0,0,0,0,0,0,0,0,0,0,0,0,0,0,0,0,0],"id":6,"left_children":[1,3,5,7,9,11,13,15,17,19,21,23,25,27,29,31,33,35,37,-1,39,-1,-1,41,43,45,47,49,51,53,55,57,59,61,63,65,-1,67,69,71,73,75,77,79,81,83,85,87,89,91,93,-1,95,-1,-1,-1,97,-1,-1,99,101,103,105,107,109,-1,-1,-1,-1,111,-1,113,115,-1,117,-1,-1,-1,119,121,123,125,127,129,131,133,135,137,139,141,-1,-1,-1,143,-1,-1,-1,145,147,-1,-1,-1,-1,149,-1,-1,151,153,155,157,159,-1,-1,-1,-1,161,163,165,-1,-1,-1,167,169,-1,171,173,175,177,179,-1,181,183,185,-1,187,189,191,193,195,197,199,201,-1,203,-1,-1,205,-1,-1,-1,-1,207,209,-1,211,-1,213,-1,-1,-1,215,-1,-1,217,219,-1,221,-1,-1,223,225,227,229,-1,-1,231,233,-1,-1,235,-1,-1,237,239,241,243,245,247,-1,-1,249,251,-1,253,-1,255,257,259,261,263,-1,265,-1,-1,267,-1,-1,-1,-1,-1,-1,-1,-1,-1,-1,-1,-1,-1,-1,-1,-1,-1,-1,-1,-1,-1,-1,-1,-1,-1,-1,-1,-1,-1,-1,-1,-1,-1,-1,-1,-1,-1,-1,-1,-1,-1,-1,-1,-1,-1,-1,-1,-1,-1,-1,-1,-1,-1,-1,-1,-1,-1,-1,-1,-1,-1,-1,-1,-1],"loss_changes":[1.7115607E2,1.238116E2,1.5959251E2,4.872531E1,1.5352665E1,5.3056335E1,8.234375E0,1.3172058E1,7.464839E0,4.7859306E0,7.8305185E-1,6.634712E1,4.9822292E1,4.899357E0,2.9034271E0,6.1849365E0,5.920218E1,3.460556E0,4.2194433E0,0E0,2.593895E0,0E0,0E0,9.375963E0,1.7723312E1,3.4780838E1,2.6818008E1,7.537213E0,1.5050626E0,1.1900418E0,2.9357147E-1,5.422989E0,6.3318977E0,1.1850077E1,5.4991455E0,3.9530945E-1,0E0,2.3643017E0,1.5099266E0,2.1893997E0,6.271119E0,3.1226983E0,2.1062565E-1,2.1570896E1,8.420273E0,3.8581604E1,8.862093E0,2.2880512E1,8.051281E0,3.5918927E0,2.0474946E0,0E0,7.996998E-1,0E0,0E0,0E0,1.0027313E-1,0E0,0E0,9.984319E-1,2.2786052E0,1.8254658E0,4.0165386E0,3.2327576E0,8.652807E0,0E0,0E0,0E0,0E0,1.6486405E0,0E0,7.673912E-1,8.509156E0,0E0,4.2299175E0,0E0,0E0,0E0,8.890724E-2,5.389467E0,4.588524E0,6.1853485E0,3.3374906E0,1.4326409E1,2.1632858E1,7.9846163E0,4.9027553E0,2.4082829E1,1.3865447E1,3.8075752E0,0E0,0E0,0E0,1.1199646E0,0E0,0E0,0E0,3.0796068E0,3.275528E-1,0E0,0E0,0E0,0E0,7.319355E-2,0E0,0E0,3.6206112E0,6.2381334E0,2.8120117E0,7.781091E-1,3.9850974E-1,0E0,0E0,0E0,0E0,1.5224533E0,3.4587376E0,3.3249264E0,0E0,0E0,0E0,2.005133E0,3.9574747E0,0E0,2.5380516E0,1.493109E0,3.7388E0,4.7869933E-1,1.4884734E0,0E0,3.1408195E0,9.105607E0,1.2933228E1,0E0,4.0183687E0,6.445279E0,4.6635723E-1,6.2866364E0,4.1131463E0,1.337502E1,1.0404243E0,5.005226E-1,0E0,5.794444E-1,0E0,0E0,8.139226E-1,0E0,0E0,0E0,0E0,3.9668427E0,1.3463941E0,0E0,1.9352033E0,0E0,1.4498444E0,0E0,0E0,0E0,1.2404394E-1,0E0,0E0,1.7932103E0,5.544207E-1,0E0,4.4276314E0,0E0,0E0,1.1794666E0,1.2590075E0,1.8280067E0,1.1935999E0,0E0,0E0,2.2367334E0,2.0065765E0,0E0,0E0,2.2116132E0,0E0,0E0,1.2572212E0,3.2352643E0,2.0182195E0,1.1772846E1,1.2044632E1,2.291234E0,0E0,0E0,6.115431E0,4.401235E-1,0E0,2.7294235E0,0E0,2.742595E0,6.2812567E-1,1.6100565E1,6.3813906E0,9.7571915E-1,0E0,3.4601974E-1,0E0,0E0,6.687218E-1,0E0,0E0,0E0,0E0,0E0,0E0,0E0,0E0,0E0,0E0,0E0,0E0,0E0,0E0,0E0,0E0,0E0,0E0,0E0,0E0,0E0,0E0,0E0,0E0,0E0,0E0,0E0,0E0,0E0,0E0,0E0,0E0,0E0,0E0,0E0,0E0,0E0,0E0,0E0,0E0,0E0,0E0,0E0,0E0,0E0,0E0,0E0,0E0,0E0,0E0,0E0,0E0,0E0,0E0,0E0,0E0,0E0,0E0,0E0,0E0,0E0,0E0,0E0,0E0],"parents":[2147483647,0,0,1,1,2,2,3,3,4,4,5,5,6,6,7,7,8,8,9,9,10,10,11,11,12,12,13,13,14,14,15,15,16,16,17,17,18,18,20,20,23,23,24,24,25,25,26,26,27,27,28,28,29,29,30,30,31,31,32,32,33,33,34,34,35,35,37,37,38,38,39,39,40,40,41,41,42,42,43,43,44,44,45,45,46,46,47,47,48,48,49,49,50,50,52,52,56,56,59,59,60,60,61,61,62,62,63,63,64,64,69,69,71,71,72,72,74,74,78,78,79,79,80,80,81,81,82,82,83,83,84,84,85,85,86,86,87,87,88,88,89,89,93,93,97,97,98,98,103,103,106,106,107,107,108,108,109,109,110,110,115,115,116,116,117,117,121,121,122,122,124,124,125,125,126,126,127,127,128,128,130,130,131,131,132,132,134,134,135,135,136,136,137,137,138,138,139,139,140,140,141,141,143,143,146,146,151,151,152,152,154,154,156,156,160,160,163,163,164,164,166,166,169,169,170,170,171,171,172,172,175,175,176,176,179,179,182,182,183,183,184,184,185,185,186,186,187,187,190,190,191,191,193,193,195,195,196,196,197,197,198,198,199,199,201,201,204,204],"right_children":[2,4,6,8,10,12,14,16,18,20,22,24,26,28,30,32,34,36,38,-1,40,-1,-1,42,44,46,48,50,52,54,56,58,60,62,64,66,-1,68,70,72,74,76,78,80,82,84,86,88,90,92,94,-1,96,-1,-1,-1,98,-1,-1,100,102,104,106,108,110,-1,-1,-1,-1,112,-1,114,116,-1,118,-1,-1,-1,120,122,124,126,128,130,132,134,136,138,140,142,-1,-1,-1,144,-1,-1,-1,146,148,-1,-1,-1,-1,150,-1,-1,152,154,156,158,160,-1,-1,-1,-1,162,164,166,-1,-1,-1,168,170,-1,172,174,176,178,180,-1,182,184,186,-1,188,190,192,194,196,198,200,202,-1,204,-1,-1,206,-1,-1,-1,-1,208,210,-1,212,-1,214,-1,-1,-1,216,-1,-1,218,220,-1,222,-1,-1,224,226,228,230,-1,-1,232,234,-1,-1,236,-1,-1,238,240,242,244,246,248,-1,-1,250,252,-1,254,-1,256,258,260,262,264,-1,266,-1,-1,268,-1,-1,-1,-1,-1,-1,-1,-1,-1,-1,-1,-1,-1,-1,-1,-1,-1,-1,-1,-1,-1,-1,-1,-1,-1,-1,-1,-1,-1,-1,-1,-1,-1,-1,-1,-1,-1,-1,-1,-1,-1,-1,-1,-1,-1,-1,-1,-1,-1,-1,-1,-1,-1,-1,-1,-1,-1,-1,-1,-1,-1,-1,-1,-1],"split_conditions":[-4.0986872E-1,6.909281E1,6.95332E1,3.9297047E1,4.13851E1,1.619447E2,-8.39E-2,3.5432476E1,9.6925865E1,8.723456E1,4.0241188E1,3.1266693E1,3.3762154E1,7.31446E1,8.482358E1,5.6402847E1,1.475181E2,3.8032465E0,4.5126034E1,-2.6488986E-2,1.4696443E2,-7.131836E-2,2.5341404E-3,2.7735025E1,4.9292564E1,4.273E-1,1.5336997E1,4.18922E1,3.69853E1,6.442E-1,4.4457634E1,2.041283E2,2.8784E1,-1.0000843E0,6.479146E1,4.3406986E1,-5.0484035E-3,3.3548615E1,1.04931206E2,2.5858E0,-6.486745E-1,1.3881529E2,3.3009747E1,3.307E1,1.032553E2,4.4650818E1,9.553718E-1,4.667933E1,1.9424E0,4.03562E1,5.3374397E1,9.289166E-3,7.9116E0,7.070485E-2,-3.552173E-2,-2.2593758E-3,1.0612917E2,-9.153258E-2,5.6866724E-2,6.60106E1,5.742022E-1,4.5792477E1,8.540769E1,1.6596521E2,1.9974356E2,1.7275813E-1,3.1924885E-2,1.4414404E-1,-5.71859E-3,9.9653694E1,-6.760752E-2,7.03025E1,4.3511566E1,-4.418007E-2,6.940021E-1,1.440861E-1,-7.8914985E-3,-2.7609493E-3,8.900428E1,3.2E1,1.0777307E0,8.635914E1,4.6155968E1,1.9974356E2,-2.7276126E-1,1.988845E2,7.5043736E0,1.571E-1,4.138E-1,1.091133E2,-5.008569E-2,-1.0221743E-2,1.338576E-1,1.22288E2,5.0623957E-2,-8.450725E-2,-0E0,1.781968E2,9.1759575E1,1.3240187E-1,-0E0,-7.8637384E-2,4.4093836E-2,6.67194E1,3.1972673E-2,-4.1231353E-2,9.3291695E1,-4.763E-1,4.299003E1,4.305E-1,2.01817E2,-4.4986013E-2,6.6170126E-2,4.091569E-2,1.8319574E-1,3.280256E0,3.538528E1,2.9484997E1,1.6639403E-1,-1.0859951E-2,-8.442191E-2,9.2185074E1,8.968811E1,-2.1209607E-2,4.75672E1,3.340581E1,-2.8662553E-1,1.0520779E2,5.3863E0,-8.716731E-2,3.014094E1,1.922695E2,-1.23115934E-1,-6.4591594E-2,1.5071E0,4.5054108E1,5.274137E-1,5.6297745E1,3.58147E1,5.4887966E1,5.03393E1,9.6425176E-1,-6.607362E-3,7.276795E-1,1.0389453E-2,-8.1529275E-2,4.2139996E1,-2.7341906E-3,-9.056932E-2,-7.270706E-2,-3.991067E-3,2.4057982E0,9.474062E1,-7.628774E-2,2.9442019E1,3.40178E-2,3.04468E1,4.0602214E-3,1.3190149E-1,-1.3036525E-3,6.976841E1,8.682581E-3,1.8152295E-1,3.4314415E0,6.362E-1,-5.2112117E-2,6.28169E1,-4.946857E-3,1.3567506E-1,8.808547E1,1.38112E2,1.3440018E2,9.337553E1,-3.5785396E-2,7.4668124E-2,2.994439E1,1.22775566E2,-5.5481263E-2,4.0962053E-3,1.076896E2,-4.48838E-3,-2.2542201E-2,3.3533E0,5.8308E1,2.0315516E1,2.9369287E1,1.6416769E1,1.10458305E2,-1.925548E-2,-7.70389E-2,1.2511004E2,3.0521435E1,-8.550921E-2,5E1,-4.0645577E-2,1.2511004E2,3.8408182E0,1.14279976E2,1.8179842E2,3.63488E1,-8.691892E-2,5.9364688E-2,4.1158915E-2,-7.8849964E-2,1.637499E2,-1.0371799E-2,7.571393E-2,6.0096502E-2,1.6799437E-1,-4.07641E-2,5.178262E-2,1.3166186E-1,-5.585515E-3,4.0535713E-3,-9.083258E-2,-7.808247E-2,-4.051488E-3,4.4340834E-2,-6.930337E-2,4.096824E-3,1.2297136E-1,1.1832243E-1,-4.6888012E-2,1.05790466E-1,-4.302327E-3,-7.849459E-2,-0E0,1.7534386E-1,8.39984E-2,7.79791E-2,-2.3543317E-2,1.0460728E-1,-3.106073E-2,1.8721649E-1,1.3902022E-1,1.3568087E-1,-4.057289E-3,1.2752443E-2,1.4617807E-1,-8.234091E-2,2.6114307E-2,-1.4112266E-2,9.977628E-2,1.0965553E-1,-7.014998E-2,1.2794098E-1,-5.0568517E-2,-0E0,1.656344E-1,-4.29939E-2,1.00473054E-1,3.022301E-3,-5.0433878E-2,1.7271775E-1,2.76584E-2,-2.9866055E-2,1.0688261E-1,-0E0,-7.975502E-2,-1.8980384E-2,4.986339E-2,1.00851186E-1,-6.815995E-2,4.133989E-2,-5.0059028E-2,6.6775136E-2,1.9130233E-1,-4.7447827E-2,2.55531E-2],"split_indices":[24,4,19,3,7,11,24,19,15,14,0,19,3,9,15,4,11,21,10,0,11,0,0,8,10,24,21,8,8,24,4,11,7,21,9,0,0,0,14,21,24,11,9,3,14,4,26,9,24,7,0,0,21,0,0,0,14,0,0,4,22,0,14,11,11,0,0,0,0,15,0,10,19,0,22,0,0,0,14,0,26,14,0,11,24,11,21,24,24,15,0,0,0,15,0,0,0,11,15,0,0,0,0,4,0,0,15,24,9,22,11,0,0,0,0,21,7,8,0,0,0,15,14,0,10,3,22,15,21,0,19,11,22,0,24,0,24,19,3,0,9,22,0,22,0,0,0,0,0,0,0,21,15,0,0,0,8,0,0,0,9,0,0,21,22,0,19,0,0,15,11,11,15,0,0,3,11,0,0,15,0,0,21,10,0,8,21,14,0,0,14,7,0,0,0,14,21,14,11,3,0,22,0,0,11,0,0,0,0,0,0,0,0,0,0,0,0,0,0,0,0,0,0,0,0,0,0,0,0,0,0,0,0,0,0,0,0,0,0,0,0,0,0,0,0,0,0,0,0,0,0,0,0,0,0,0,0,0,0,0,0,0,0,0,0,0,0,0,0],"split_type":[0,0,0,0,0,0,0,0,0,0,0,0,0,0,0,0,0,0,0,0,0,0,0,0,0,0,0,0,0,0,0,0,0,0,0,0,0,0,0,0,0,0,0,0,0,0,0,0,0,0,0,0,0,0,0,0,0,0,0,0,0,0,0,0,0,0,0,0,0,0,0,0,0,0,0,0,0,0,0,0,0,0,0,0,0,0,0,0,0,0,0,0,0,0,0,0,0,0,0,0,0,0,0,0,0,0,0,0,0,0,0,0,0,0,0,0,0,0,0,0,0,0,0,0,0,0,0,0,0,0,0,0,0,0,0,0,0,0,0,0,0,0,0,0,0,0,0,0,0,0,0,0,0,0,0,0,0,0,0,0,0,0,0,0,0,0,0,0,0,0,0,0,0,0,0,0,0,0,0,0,0,0,0,0,0,0,0,0,0,0,0,0,0,0,0,0,0,0,0,0,0,0,0,0,0,0,0,0,0,0,0,0,0,0,0,0,0,0,0,0,0,0,0,0,0,0,0,0,0,0,0,0,0,0,0,0,0,0,0,0,0,0,0,0,0,0,0,0,0,0,0,0,0,0,0,0,0,0,0,0,0,0,0,0,0,0,0,0,0],"sum_hessian":[2.7046238E3,1.0271464E3,1.6774773E3,9.1683887E2,1.1030753E2,1.3909945E3,2.8648282E2,8.7564795E2,4.119091E1,9.924494E1,1.1062591E1,3.631489E2,1.0278456E3,7.103644E1,2.1544638E2,5.0984592E2,3.6580206E2,2.0851877E1,2.0339033E1,3.5886278E0,9.565631E1,8.735596E0,2.3269944E0,5.205547E1,3.110934E2,4.8317328E2,5.446723E2,3.926852E1,3.1767918E1,4.375219E0,2.1107117E2,4.881853E2,2.1660608E1,6.894345E1,2.968586E2,1.8640408E1,2.2114701E0,6.6330786E0,1.37059555E1,6.11775E1,3.447881E1,7.86356E0,4.419191E1,8.779394E1,2.2329948E2,3.9119446E2,9.197883E1,5.124319E2,3.2240417E1,1.3216063E1,2.6052456E1,3.410429E0,2.8357489E1,2.2897189E0,2.0854998E0,2.1371605E0,2.08934E2,4.8464743E2,3.5378625E0,5.9145956E0,1.5746013E1,1.49062395E1,5.4037212E1,2.708601E2,2.599849E1,1.6234962E1,2.4054441E0,4.393181E0,2.239898E0,6.898633E0,6.8073225E0,3.1759785E1,2.9417715E1,5.6637754E0,2.8815035E1,3.8530595E0,4.0105004E0,2.1500704E0,4.204184E1,3.7097927E1,5.0696007E1,2.053455E2,1.7953972E1,4.6707737E1,3.444867E2,2.2272707E1,6.970612E1,6.520437E1,4.472275E2,2.8762789E1,3.4776304E0,4.101837E0,9.114225E0,2.3242903E1,2.8095527E0,2.5065561E1,3.2919283E0,2.2732212E1,1.862018E2,3.505031E0,2.4095643E0,1.3725966E1,2.0200458E0,1.1386966E1,3.519274E0,2.491701E0,5.1545513E1,1.7618263E1,2.5324185E2,7.012856E0,1.8985634E1,2.8415792E0,4.0570536E0,3.1497028E0,2.8610083E1,1.510837E1,1.4309346E1,1.6922165E1,1.189287E1,2.5395284E0,3.950231E1,5.7380033E0,3.1359926E1,3.218286E0,4.747772E1,6.503502E0,1.9884201E2,6.4860277E0,1.1467945E1,3.344514E1,1.3262599E1,4.0664593E1,3.038221E2,5.8252196E0,1.6447487E1,3.4203896E1,3.5502224E1,3.867999E1,2.6524376E1,3.851508E2,6.2076733E1,2.6511316E1,2.251472E0,1.9866802E1,3.3761015E0,1.8126165E1,4.606046E0,2.152371E0,1.8404942E2,9.208683E0,2.1782832E0,4.054757E1,1.0997944E1,1.1871072E1,5.7471914E0,2.3580847E0,2.5088377E2,2.2704039E0,4.742452E0,3.481041E0,1.5504592E1,2.0141315E0,1.3094237E1,9.527609E0,4.7817373E0,3.5954525E0,1.3326714E1,2.2105632E0,3.5274403E0,4.3566523E0,2.7003273E1,4.2124302E1,5.3534174E0,4.397591E0,2.1059108E0,6.1651964E0,1.926768E2,4.2168493E0,2.269178E0,9.273816E0,2.194129E0,3.264877E0,9.997722E0,2.4250973E1,1.641362E1,2.640504E1,2.7741708E2,1.3476494E1,2.970994E0,1.2269399E1,2.1934496E1,7.259202E0,2.8243023E1,3.6216522E1,2.4634657E0,8.115622E0,1.8408754E1,3.0301346E2,8.213734E1,5.554916E0,5.6521816E1,2.3369053E1,3.1422648E0,1.4036867E1,5.829935E0,2.5156608E0,2.0903857E0,1.7028515E1,2.3519053E1,2.4669266E0,8.531018E0,3.5171957E0,2.229996E0,2.270539E0,2.4861324E2,1.3324557E1,2.1800349E0,2.0140715E0,7.5135374E0,2.2693305E0,2.512407E0,1.0403115E1,2.9235973E0,2.1679745E0,2.1886778E0,2.2908283E1,4.0949893E0,2.5390167E1,1.6734137E1,2.0527093E0,3.3007078E0,2.1850314E0,3.980165E0,7.464654E1,1.1803027E2,7.0935946E0,2.1802216E0,3.2986667E0,6.699055E0,1.8136168E1,6.114805E0,2.6453648E0,1.3768255E1,1.2312797E1,1.4092244E1,2.706721E2,6.744997E0,2.576567E0,1.0899927E1,8.212364E0,1.3722133E1,3.7589474E0,3.5002549E0,3.1429462E1,4.7870607E0,3.9075558E0,4.2080655E0,3.3268063E0,1.5081948E1,1.9346007E2,1.0955338E2,2.9775703E0,7.915977E1,2.079083E0,3.475833E0,4.8811507E0,1.8487902E1,3.145416E0,2.684519E0],"tree_param":{"num_deleted":"0","num_feature":"27","num_nodes":"269","size_leaf_vector":"1"}},{"base_weights":[-9.76794E-4,1.0261648E0,-3.5257885E-1,1.2794553E0,2.2419693E-1,-4.8993868E-1,1.0139909E0,8.228741E-1,1.4241205E0,-1.9841805E-1,1.0368258E0,5.847734E-1,-5.5886453E-1,1.348479E0,4.547233E-1,1.1170274E0,3.558832E-1,2.1109131E-1,1.0371277E0,-5.276975E-1,3.3331797E-1,-1.20687544E-1,1.2928643E0,1.1505511E0,1.9753836E-1,-5.871629E-1,2.2846825E-1,9.167384E-1,2.1209258E-1,-2.0501369E-1,9.2930895E-1,2.0657538E-1,1.209101E0,5.3017206E-2,1.1047835E0,3.4207878E-1,1.9512409E-1,-5.913099E-1,6.1708383E-2,-2.2073252E-2,7.620976E-1,-6.597583E-2,5.5173904E-2,2.729589E-1,1.3710355E0,1.6307563E-1,1.3310187E0,-8.49867E-3,8.2321113E-1,-3.6698565E-1,-6.246226E-1,9.274436E-1,-1.13468066E-1,1.1660461E0,1.7835131E-1,-4.3407315E-1,1.8396986E-1,-5.5614796E-2,1.1003364E0,-7.8385614E-2,1.0410016E-1,-0E0,1.2626258E0,1.393256E-1,-8.636199E-2,3.9165476E-3,1.8277508E-1,-2.7072453E-1,1.4757288E-1,-8.966297E-2,-2.5960503E-3,6.0509104E-2,-4.3771487E-2,-2.4240355E-1,5.9533656E-1,1.2541617E-1,1.0312041E0,1.0508102E-1,-3.55258E-2,3.618588E-2,2.0442402E-1,1.2382399E-1,-5.5900328E-2,3.6360834E-2,1.993957E-1,-1.8783376E-1,1.4619277E-1,2.0959587E-1,1.5355235E-1,-5.008724E-1,4.703046E-2,-6.2925565E-1,1.9521482E-1,-4.5520784E-3,1.6805193E-1,-2.7160984E-1,4.5929053E-1,3.9928335E-1,1.8682332E-1,-4.252739E-2,1.2329712E-1,5.9353076E-3,-5.113119E-1,1.0094645E-1,-2.2275627E-1,1.8155675E-1,3.4312552E-1,-4.8142195E-2,2.3919612E-2,2.4927681E-2,1.2965512E0,2.3757264E-1,-3.8214442E-1,4.4056205E-3,-6.0547996E-2,-4.1579178E-1,1.3121259E-1,1.1417398E-1,3.885924E-3,-2.9875815E-2,7.891547E-2,1.6320656E-1,3.317553E-2,-4.6003684E-1,2.3350647E-1,7.623947E-2,-3.6358155E-2,-0E0,-5.217287E-1,-2.3506321E-1,5.691319E-1,-6.3123906E-1,-9.554473E-3,-5.5242192E-2,1.3017657E-1,-3.6957803E-1,1.8556114E-1,-4.378164E-2,1.3179122E-1,1.03191055E-1,-4.3912986E-3,-7.967132E-2,-4.389748E-3,1.8339213E-3,-5.415911E-2,1.08478405E-1,-4.4905435E-2,1.383183E0,7.411123E-1,-4.3203678E-2,5.3922325E-1,5.9402436E-3,-4.5480382E-1,-7.574441E-2,9.601299E-3,-4.3933596E-2,8.470633E-2,-8.3510235E-2,3.784605E-2,-5.563467E-2,4.7540143E-1,5.2987594E-2,-3.308175E-2,-5.389074E-1,-0E0,-4.158971E-1,3.1826493E-1,-2.095282E-1,1.0634788E0,-6.331871E-1,-2.221135E-1,-4.3910604E-2,3.532208E-2,-8.0979615E-2,-2.2811426E-2,6.465986E-2,-1.1319022E-2,4.1579638E-2,2.0392959E-1,1.4763737E-1,-0E0,1.2122438E-1,-2.2556098E-2,-2.6551767E-3,-7.765112E-2,5.505323E-2,-3.9236087E-2,9.4227254E-2,-3.5640005E-2,-7.938492E-2,4.6642767E-3,-5.1776096E-2,6.128304E-2,-0E0,-7.026217E-2,8.664048E-2,-8.1887925E-3,-6.484733E-2,4.4037253E-2,4.6016864E-2,1.804899E-1,-4.4112798E-2,-9.200549E-2,-6.580528E-2,4.4042807E-2,-6.133393E-2,4.3849193E-2],"categories":[],"categories_nodes":[],"categories_segments":[],"categories_sizes":[],"default_left":[0,0,0,0,0,0,0,0,0,0,0,0,0,0,0,0,0,0,0,0,0,0,0,0,0,0,0,0,0,0,0,0,0,0,0,0,0,0,0,0,0,0,0,0,0,0,0,0,0,0,0,0,0,0,0,0,0,0,0,0,0,0,0,0,0,0,0,0,0,0,0,0,0,0,0,0,0,0,0,0,0,0,0,0,0,0,0,0,0,0,0,0,0,0,0,0,0,0,0,0,0,0,0,0,0,0,0,0,0,0,0,0,0,0,0,0,0,0,0,0,0,0,0,0,0,0,0,0,0,0,0,0,0,0,0,0,0,0,0,0,0,0,0,0,0,0,0,0,0,0,0,0,0,0,0,0,0,0,0,0,0,0,0,0,0,0,0,0,0,0,0,0,0,0,0,0,0,0,0,0,0,0,0,0,0,0,0,0,0,0,0,0,0,0,0,0,0,0,0,0,0,0,0,0,0,0,0],"id":7,"left_children":[1,3,5,7,9,11,13,15,17,19,21,23,25,27,29,31,33,-1,35,37,39,41,43,45,47,49,51,53,-1,55,57,59,61,63,65,67,-1,69,71,73,75,-1,-1,77,79,81,83,85,87,89,91,93,95,97,99,101,103,-1,105,107,-1,-1,109,-1,111,-1,-1,113,-1,-1,-1,-1,-1,115,117,119,121,-1,-1,-1,-1,-1,-1,-1,-1,123,-1,125,-1,127,129,131,133,-1,-1,135,137,139,-1,-1,-1,-1,141,-1,143,-1,145,-1,-1,-1,147,149,151,-1,-1,153,155,-1,-1,-1,-1,-1,-1,157,159,-1,-1,161,163,165,167,169,171,-1,-1,173,175,-1,-1,-1,-1,-1,-1,-1,-1,-1,-1,177,179,-1,181,-1,183,-1,-1,-1,-1,-1,185,-1,187,-1,-1,189,191,193,195,197,199,201,203,-1,-1,-1,205,-1,-1,-1,-1,-1,-1,-1,-1,-1,-1,-1,-1,-1,-1,-1,-1,-1,-1,-1,-1,-1,-1,-1,-1,-1,-1,-1,-1,-1,-1,-1,-1],"loss_changes":[9.8659607E2,1.4041553E2,3.830016E2,3.1780334E1,5.907704E1,1.378128E2,3.3019424E1,1.691426E1,1.3980713E0,2.0257988E1,1.8118755E1,2.369432E1,3.918872E1,2.2904968E0,2.3550907E1,5.7249603E0,1.1899015E1,0E0,7.244858E0,2.9163837E0,7.012718E0,2.445786E0,2.5608444E0,7.057766E0,9.24045E0,1.3075623E1,1.5177998E1,4.7711506E0,0E0,3.098274E0,1.0815266E1,1.8080668E0,4.7042465E0,5.7072487E0,2.1171303E0,7.2779875E0,0E0,8.182068E-1,1.3707114E0,3.6786897E0,2.867402E0,0E0,0E0,2.00468E0,7.887497E-1,4.4614234E0,6.4199066E-1,9.962789E0,1.6989088E0,1.4098511E1,5.8378906E0,5.0958138E0,4.0688148E0,5.1434326E-1,4.029841E0,9.7935295E-1,3.1410682E0,0E0,3.147747E0,6.599675E-1,0E0,0E0,1.6056595E0,0E0,3.8218486E0,0E0,0E0,5.7814795E-1,0E0,0E0,0E0,0E0,0E0,1.5534832E0,4.5400333E-1,1.5659091E0,8.948994E-2,0E0,0E0,0E0,0E0,0E0,0E0,0E0,0E0,5.7798414E0,0E0,1.5104144E0,0E0,2.1533546E0,9.595563E0,1.5288696E0,4.616445E0,0E0,0E0,1.780474E0,4.053382E0,1.1374997E0,0E0,0E0,0E0,0E0,1.3369083E-1,0E0,4.2554876E-1,0E0,3.2167883E0,0E0,0E0,0E0,3.8723755E-1,3.4170904E0,8.17142E-1,0E0,0E0,1.015835E0,1.9462366E0,0E0,0E0,0E0,0E0,0E0,0E0,1.9831395E0,3.3411555E0,0E0,0E0,9.715411E-1,1.5892944E0,4.469592E0,9.570468E0,5.626831E-1,7.043096E-1,0E0,0E0,1.7792687E0,6.747392E-1,0E0,0E0,0E0,0E0,0E0,0E0,0E0,0E0,0E0,0E0,1.5833282E-1,2.5777845E0,0E0,3.1941817E0,0E0,4.6284723E-1,0E0,0E0,0E0,0E0,0E0,1.0018299E0,0E0,2.4167292E0,0E0,0E0,1.1816635E0,1.5258307E0,1.0465794E0,1.4007564E0,1.5960687E0,6.765194E-1,4.8046875E-1,1.6408658E0,0E0,0E0,0E0,2.0632594E0,0E0,0E0,0E0,0E0,0E0,0E0,0E0,0E0,0E0,0E0,0E0,0E0,0E0,0E0,0E0,0E0,0E0,0E0,0E0,0E0,0E0,0E0,0E0,0E0,0E0,0E0,0E0,0E0,0E0,0E0,0E0,0E0],"parents":[2147483647,0,0,1,1,2,2,3,3,4,4,5,5,6,6,7,7,8,8,9,9,10,10,11,11,12,12,13,13,14,14,15,15,16,16,18,18,19,19,20,20,21,21,22,22,23,23,24,24,25,25,26,26,27,27,29,29,30,30,31,31,32,32,33,33,34,34,35,35,37,37,38,38,39,39,40,40,43,43,44,44,45,45,46,46,47,47,48,48,49,49,50,50,51,51,52,52,53,53,54,54,55,55,56,56,58,58,59,59,62,62,64,64,67,67,73,73,74,74,75,75,76,76,85,85,87,87,89,89,90,90,91,91,92,92,95,95,96,96,97,97,102,102,104,104,106,106,110,110,111,111,112,112,115,115,116,116,123,123,124,124,127,127,128,128,129,129,130,130,131,131,132,132,135,135,136,136,147,147,148,148,150,150,152,152,158,158,160,160,163,163,164,164,165,165,166,166,167,167,168,168,169,169,170,170,174,174],"right_children":[2,4,6,8,10,12,14,16,18,20,22,24,26,28,30,32,34,-1,36,38,40,42,44,46,48,50,52,54,-1,56,58,60,62,64,66,68,-1,70,72,74,76,-1,-1,78,80,82,84,86,88,90,92,94,96,98,100,102,104,-1,106,108,-1,-1,110,-1,112,-1,-1,114,-1,-1,-1,-1,-1,116,118,120,122,-1,-1,-1,-1,-1,-1,-1,-1,124,-1,126,-1,128,130,132,134,-1,-1,136,138,140,-1,-1,-1,-1,142,-1,144,-1,146,-1,-1,-1,148,150,152,-1,-1,154,156,-1,-1,-1,-1,-1,-1,158,160,-1,-1,162,164,166,168,170,172,-1,-1,174,176,-1,-1,-1,-1,-1,-1,-1,-1,-1,-1,178,180,-1,182,-1,184,-1,-1,-1,-1,-1,186,-1,188,-1,-1,190,192,194,196,198,200,202,204,-1,-1,-1,206,-1,-1,-1,-1,-1,-1,-1,-1,-1,-1,-1,-1,-1,-1,-1,-1,-1,-1,-1,-1,-1,-1,-1,-1,-1,-1,-1,-1,-1,-1,-1,-1],"split_conditions":[1.0191449E0,3.8445312E1,2.73045E1,2.035961E1,2.3924618E1,2.0542467E1,3.6119244E1,2.4297619E1,3.3435078E1,2.9948754E0,9.9653694E1,1.3E1,4.06766E1,3.70068E1,3.91507E1,1.84551E1,4.5715E0,2.1109131E-1,3.53074E1,1.337875E2,4.485E-1,4.1050915E1,1.187772E2,8.968811E1,3.611979E1,3.413321E1,3.242177E1,2.8650763E1,2.1209258E-1,1.0277852E2,-1.511847E0,4.176E0,-1.0569642E-1,4.13479E1,1.5893906E0,2.58212E1,1.9512409E-1,3.9688652E1,5.5254974E1,3.74238E1,1.6469816E1,-6.597583E-2,5.5173904E-2,4.4154747E1,3.047634E1,4.5195346E0,2.8531698E1,6.4473E0,2.794667E0,2.2477121E1,7.3072E0,1.9245638E1,5.5753093E0,9.54217E1,5.354415E0,8.8861984E1,1.092288E2,-5.5614796E-2,5.4020836E1,1.240185E2,1.0410016E-1,-0E0,1.0176886E2,1.393256E-1,2.9355871E1,3.9165476E-3,1.8277508E-1,2.072873E1,1.4757288E-1,-8.966297E-2,-2.5960503E-3,6.0509104E-2,-4.3771487E-2,6.53184E1,2.6562553E1,5.0664E0,2.2706059E1,1.0508102E-1,-3.55258E-2,3.618588E-2,2.0442402E-1,1.2382399E-1,-5.5900328E-2,3.6360834E-2,1.993957E-1,2.09395E1,1.4619277E-1,2.0190127E0,1.5355235E-1,1.1287955E0,3.38395E1,8.62988E1,9.93711E1,-4.5520784E-3,1.6805193E-1,2.64367E1,-5.2508205E-1,1.3E1,1.8682332E-1,-4.252739E-2,1.2329712E-1,5.9353076E-3,-1.898E-1,1.0094645E-1,2.902817E1,1.8155675E-1,4.923103E0,-4.8142195E-2,2.3919612E-2,2.4927681E-2,5.972476E1,1.128407E2,1.2314186E0,4.4056205E-3,-6.0547996E-2,4.725E-1,1.4122306E0,1.1417398E-1,3.885924E-3,-2.9875815E-2,7.891547E-2,1.6320656E-1,3.317553E-2,9.62793E1,1.0446668E0,7.623947E-2,-3.6358155E-2,2.3664253E1,3.7956326E1,2.5448683E1,2.2885854E0,6.8816E0,2.8740892E1,-5.5242192E-2,1.3017657E-1,1.097023E2,-2.944555E-1,-4.378164E-2,1.3179122E-1,1.03191055E-1,-4.3912986E-3,-7.967132E-2,-4.389748E-3,1.8339213E-3,-5.415911E-2,1.08478405E-1,-4.4905435E-2,-2.7764657E0,3.0211613E0,-4.3203678E-2,2.84668E0,5.9402436E-3,4.082269E0,-7.574441E-2,9.601299E-3,-4.3933596E-2,8.470633E-2,-8.3510235E-2,2.271116E1,-5.563467E-2,5.3061E0,5.2987594E-2,-3.308175E-2,7.41399E1,4.9810925E1,1.247836E-1,3.0211613E0,1.0234107E2,9.856431E1,1.1287955E0,2.06953E1,-4.3910604E-2,3.532208E-2,-8.0979615E-2,2.10057E1,6.465986E-2,-1.1319022E-2,4.1579638E-2,2.0392959E-1,1.4763737E-1,-0E0,1.2122438E-1,-2.2556098E-2,-2.6551767E-3,-7.765112E-2,5.505323E-2,-3.9236087E-2,9.4227254E-2,-3.5640005E-2,-7.938492E-2,4.6642767E-3,-5.1776096E-2,6.128304E-2,-0E0,-7.026217E-2,8.664048E-2,-8.1887925E-3,-6.484733E-2,4.4037253E-2,4.6016864E-2,1.804899E-1,-4.4112798E-2,-9.200549E-2,-6.580528E-2,4.4042807E-2,-6.133393E-2,4.3849193E-2],"split_indices":[25,2,23,23,23,2,2,2,2,12,15,2,7,7,7,1,12,0,7,14,22,7,14,14,7,2,2,2,0,15,21,12,24,4,20,1,0,7,2,7,23,0,0,2,7,21,7,12,13,23,12,23,12,14,12,15,15,0,2,14,0,0,14,0,2,0,0,1,0,0,0,0,0,4,1,12,23,0,0,0,0,0,0,0,0,23,0,13,0,13,7,9,15,0,0,23,24,2,0,0,0,0,24,0,23,0,21,0,0,0,4,14,13,0,0,24,13,0,0,0,0,0,0,15,12,0,0,2,7,23,21,12,7,0,0,14,24,0,0,0,0,0,0,0,0,0,0,20,13,0,12,0,21,0,0,0,0,0,1,0,20,0,0,4,9,20,13,14,14,13,23,0,0,0,1,0,0,0,0,0,0,0,0,0,0,0,0,0,0,0,0,0,0,0,0,0,0,0,0,0,0,0,0,0,0,0,0],"split_type":[0,0,0,0,0,0,0,0,0,0,0,0,0,0,0,0,0,0,0,0,0,0,0,0,0,0,0,0,0,0,0,0,0,0,0,0,0,0,0,0,0,0,0,0,0,0,0,0,0,0,0,0,0,0,0,0,0,0,0,0,0,0,0,0,0,0,0,0,0,0,0,0,0,0,0,0,0,0,0,0,0,0,0,0,0,0,0,0,0,0,0,0,0,0,0,0,0,0,0,0,0,0,0,0,0,0,0,0,0,0,0,0,0,0,0,0,0,0,0,0,0,0,0,0,0,0,0,0,0,0,0,0,0,0,0,0,0,0,0,0,0,0,0,0,0,0,0,0,0,0,0,0,0,0,0,0,0,0,0,0,0,0,0,0,0,0,0,0,0,0,0,0,0,0,0,0,0,0,0,0,0,0,0,0,0,0,0,0,0,0,0,0,0,0,0,0,0,0,0,0,0,0,0,0,0,0,0],"sum_hessian":[2.7283784E3,6.945414E2,2.033837E3,5.265949E2,1.679465E2,1.8494897E3,1.8434732E2,1.3054196E2,3.9605295E2,1.1123622E2,5.6710278E1,1.1025613E2,1.7392336E3,1.131809E2,7.116641E1,7.791301E1,5.262895E1,3.576591E2,3.8393875E1,6.908881E1,4.2147408E1,1.0234319E1,4.647596E1,4.281641E1,6.743972E1,1.679797E3,5.9436653E1,2.8593147E1,8.458775E1,2.997003E1,4.1196384E1,8.093804E0,6.981921E1,3.9346386E1,1.328256E1,1.3527961E1,2.4865913E1,6.2858017E1,6.230793E0,2.368543E1,1.8461979E1,6.642994E0,3.5913246E0,4.2628064E0,4.2213154E1,7.4997363E0,3.5316673E1,5.1853344E1,1.5586372E1,2.487274E2,1.4310696E3,1.8691832E1,4.074482E1,2.0156584E1,8.436564E0,1.9247276E1,1.0722754E1,4.2298503E0,3.6966534E1,5.9019976E0,2.1918066E0,3.012888E0,6.680632E1,3.9375691E0,3.5408817E1,2.2733088E0,1.1009253E1,7.492714E0,6.035247E0,5.920096E1,3.6570582E0,3.4538398E0,2.7769532E0,1.8765047E1,4.9203825E0,6.7397146E0,1.1722263E1,2.1773365E0,2.0854697E0,2.3038714E0,3.9909283E1,3.079028E0,4.4207087E0,2.3003156E0,3.3016357E1,4.5784416E1,6.0689306E0,5.815314E0,9.771058E0,1.88226E2,6.0501408E1,1.4239005E3,7.16905E0,3.733898E0,1.4957934E1,3.322282E1,7.522E0,4.3949285E0,1.5761655E1,5.349316E0,3.0872486E0,2.2282572E0,1.701902E1,4.451561E0,6.2711926E0,2.9234697E1,7.7318363E0,3.1854808E0,2.7165167E0,2.6842334E0,6.4122086E1,1.6559706E1,1.8849112E1,2.2636673E0,5.2290463E0,1.326256E1,5.502488E0,2.6460953E0,2.2742872E0,3.905961E0,2.8337536E0,9.354362E0,2.367902E0,2.8176584E1,1.760783E1,3.6951253E0,2.1201885E0,6.9972887E0,1.8122871E2,3.959823E1,2.090318E1,1.4187891E3,5.1114945E0,4.197996E0,2.971054E0,2.827679E1,4.946029E0,2.7774172E0,4.7445827E0,2.2044737E0,2.1904547E0,1.4828635E1,2.1903846E0,2.3357878E0,3.9354045E0,4.8926187E0,2.839218E0,5.2320927E1,1.1801157E1,5.576384E0,1.0983322E1,2.226919E0,1.6622192E1,1.1259416E1,2.0031438E0,2.7859719E0,2.7165163E0,2.3088259E1,5.088325E0,4.230931E0,1.3376901E1,2.750788E0,4.246501E0,1.7520296E2,6.025751E0,3.0676805E1,8.921424E0,8.315519E0,1.2587661E1,1.4101484E3,8.640648E0,2.7847013E0,2.3267932E0,1.684301E1,1.1433781E1,2.400852E0,2.5451772E0,2.0751011E0,5.0245827E1,7.739652E0,4.061505E0,7.7230053E0,3.2603164E0,3.6540663E0,1.2968126E1,2.695222E0,2.393103E0,1.1286292E1,2.0906084E0,1.729447E2,2.2582593E0,3.5647652E0,2.460986E0,4.2697663E0,2.640704E1,4.908867E0,4.012557E0,6.2960773E0,2.0194416E0,3.9471815E0,8.640479E0,1.3803228E1,1.3963452E3,6.6208205E0,2.0198271E0,5.303763E0,6.1300178E0],"tree_param":{"num_deleted":"0","num_feature":"27","num_nodes":"207","size_leaf_vector":"1"}},{"base_weights":[-7.7708308E-3,1.232951E0,-6.064219E-1,1.2767301E0,-3.2772383E-1,-7.08532E-2,-6.26562E-1,1.8519732E-1,4.2135572E-1,-8.048662E-2,1.362268E-1,1.7632863E-1,-8.571556E-2,-3.1008726E-1,-9.098875E-2,-1.9397392E-3,1.0454861E-1,5.5071272E-2,-7.413478E-2],"categories":[],"categories_nodes":[],"categories_segments":[],"categories_sizes":[],"default_left":[0,0,0,0,0,0,0,0,0,0,0,0,0,0,0,0,0,0,0],"id":8,"left_children":[1,3,5,7,9,11,13,-1,15,-1,-1,-1,-1,17,-1,-1,-1,-1,-1],"loss_changes":[1.9746721E3,6.0282227E1,1.9026062E1,4.6936035E-1,8.198509E0,4.6918236E1,4.724121E-1,0E0,1.0832952E0,0E0,0E0,0E0,0E0,2.784627E0,0E0,0E0,0E0,0E0,0E0],"parents":[2147483647,0,0,1,1,2,2,3,3,4,4,5,5,6,6,8,8,13,13],"right_children":[2,4,6,8,10,12,14,-1,16,-1,-1,-1,-1,18,-1,-1,-1,-1,-1],"split_conditions":[3.74409E1,3.95899E1,3.74999E1,6.622253E1,5.9061085E1,1.8074696E1,3.7520004E1,1.8519732E-1,6.0976227E1,-8.048662E-2,1.362268E-1,1.7632863E-1,-8.571556E-2,4.590715E1,-9.098875E-2,-1.9397392E-3,1.0454861E-1,5.5071272E-2,-7.413478E-2],"split_indices":[18,19,18,17,2,23,18,0,2,0,0,0,0,4,0,0,0,0,0],"split_type":[0,0,0,0,0,0,0,0,0,0,0,0,0,0,0,0,0,0,0],"sum_hessian":[2.6547383E3,8.6313934E2,1.7915989E3,8.401552E2,2.2984133E1,6.5860115E1,1.7257388E3,8.358618E2,4.293385E0,2.0671627E1,2.3125055E0,1.7996786E1,4.7863327E1,1.4733579E1,1.7110052E3,2.1074083E0,2.1859767E0,2.5584257E0,1.2175153E1],"tree_param":{"num_deleted":"0","num_feature":"27","num_nodes":"19","size_leaf_vector":"1"}},{"base_weights":[-2.0478422E-2,-5.069961E-1,1.8502423E-1,-2.952528E-1,-5.954417E-1,-4.1832808E-1,5.434027E-1,-4.932214E-1,9.9267446E-2,-2.2921942E-2,-8.84678E-2,6.694292E-1,-5.4156274E-1,-4.2776782E-2,8.1787837E-1,6.399504E-2,-5.2036154E-1,3.065677E-1,-7.9234935E-2,1.0520256E-1,-7.237824E-2,8.336409E-1,-6.870736E-2,-6.442358E-3,-5.9212995E-1,3.7782797E-1,-3.6258444E-1,9.2761207E-1,-5.4433197E-1,-1.3860056E-1,-5.504477E-1,-7.076146E-2,4.690418E-1,1.1698147E0,2.7317005E-1,2.0944193E-1,-4.281722E-1,-6.093234E-1,2.7732613E-2,6.0613036E-1,-5.2874744E-1,1.4363654E-1,-4.595311E-1,-2.914214E-1,1.0094882E0,5.777023E-2,-8.741241E-2,-3.5549495E-1,7.73719E-2,-3.2066298E-1,-8.642683E-2,6.7332786E-1,-1.5865168E-2,1.8018353E-1,1.5226374E-2,4.437699E-1,-5.4167528E-2,-4.8157368E-2,7.838673E-1,-7.306306E-2,3.5148866E-3,-6.2079966E-1,8.708644E-2,-6.848233E-2,6.5026134E-1,6.823242E-1,-3.849676E-1,-3.8809075E-3,-5.5057675E-1,-4.5224324E-1,5.051367E-1,-4.896945E-1,2.7459648E-1,-0E0,-8.290018E-2,1.0633639E0,-3.0340052E-1,7.272803E-2,-4.2033292E-2,3.5777611E-3,-6.84333E-2,2.6136175E-1,-4.8700717E-1,8.814595E-1,-5.933352E-2,1.02661274E-1,-7.180558E-2,6.290191E-1,-3.0861733E-2,3.686812E-1,-3.395522E-1,1.4030246E-1,-0E0,-9.008959E-2,-1.3282398E-2,-6.0247388E-2,1.1805365E-1,1.3416895E-1,-3.7153857E-3,7.717384E-1,-7.8327626E-2,-6.318561E-2,-1.4270105E-3,-8.3535165E-2,-1.1344329E-2,-7.268185E-2,-0E0,-5.1502634E-2,7.2142017E-1,4.5968506E-2,-5.311377E-1,9.359807E-2,-3.8221996E-2,8.290537E-2,-1.3989037E-1,1.1468952E0,3.0400792E-1,-8.148738E-2,3.1672552E-1,1.03967205E-1,-3.9907504E-2,-7.9323225E-2,-8.12925E-3,1.0046892E0,-1.831008E-2,-3.4978233E-2,7.877853E-1,-4.0826906E-2,1.3840275E-1,-7.555001E-2,2.964914E-2,8.471758E-1,-1.8219069E-1,-5.713641E-2,6.637621E-2,1.5291005E-1,-4.8974622E-2,5.998868E-1,-5.065894E-2,-2.686087E-1,-5.7717884E-1,-4.7302145E-1,4.807242E-1,1.162142E0,1.0124702E-1,-0E0,8.131835E-1,9.374589E-2,-4.2575233E-2,1.6988117E-1,4.460946E-2,1.2821068E-1,2.1285375E-3,-3.073304E-2,1.3004611E-1,-6.275384E-2,4.1652393E-2,3.3942305E-2,-4.707486E-2,3.3905609E-3,1.1504755E-1,2.2083037E-2,-7.414319E-2,-4.4513334E-2,-8.697553E-2,-3.360991E-3,-7.4574046E-2,1.11147314E-1,-8.229416E-3,1.0318411E-1,1.7344077E-1,1.0503246E-1,-4.5098618E-2,5.540314E-2,-6.351064E-2,1.5951924E-1,-2.5160238E-2],"categories":[],"categories_nodes":[],"categories_segments":[],"categories_sizes":[],"default_left":[0,0,0,0,0,0,0,0,0,0,0,0,0,0,0,0,0,0,0,0,0,0,0,0,0,0,0,0,0,0,0,0,0,0,0,0,0,0,0,0,0,0,0,0,0,0,0,0,0,0,0,0,0,0,0,0,0,0,0,0,0,0,0,0,0,0,0,0,0,0,0,0,0,0,0,0,0,0,0,0,0,0,0,0,0,0,0,0,0,0,0,0,0,0,0,0,0,0,0,0,0,0,0,0,0,0,0,0,0,0,0,0,0,0,0,0,0,0,0,0,0,0,0,0,0,0,0,0,0,0,0,0,0,0,0,0,0,0,0,0,0,0,0,0,0,0,0,0,0,0,0,0,0,0,0,0,0,0,0,0,0,0,0,0,0,0,0,0,0,0,0,0,0,0,0,0,0],"id":9,"left_children":[1,3,5,7,9,11,13,15,17,19,-1,21,23,25,27,-1,29,31,-1,-1,-1,33,-1,35,37,39,41,43,45,47,49,-1,51,53,55,57,59,61,63,65,67,69,71,73,75,77,-1,79,-1,81,-1,83,85,-1,-1,87,-1,89,91,-1,-1,93,95,-1,97,99,101,-1,103,105,107,109,111,113,-1,115,117,-1,-1,-1,-1,119,121,123,-1,-1,-1,125,-1,127,129,-1,-1,-1,-1,-1,-1,-1,-1,131,133,-1,-1,-1,-1,-1,-1,-1,135,137,139,-1,-1,-1,141,143,145,-1,147,-1,-1,-1,-1,149,-1,-1,151,-1,-1,-1,-1,153,155,-1,-1,-1,157,159,-1,161,163,165,167,169,171,173,175,-1,-1,-1,-1,-1,-1,-1,-1,-1,-1,-1,-1,-1,-1,-1,-1,-1,-1,-1,-1,-1,-1,-1,-1,-1,-1,-1,-1,-1,-1],"loss_changes":[2.6605133E2,1.4148331E1,4.0479547E2,1.882007E1,4.79599E0,9.42048E1,1.892515E2,4.5426903E0,1.10801525E1,6.976483E0,0E0,1.4385391E1,1.678714E1,5.0856983E1,1.2077826E2,0E0,1.4104767E0,8.578003E0,0E0,0E0,0E0,1.085965E1,0E0,5.4311852E0,6.334976E0,3.441294E1,1.0795738E1,7.485309E1,2.433426E0,2.5113535E0,8.4484863E-1,0E0,5.5413456E0,2.3928795E0,3.3328934E0,6.010236E0,8.9272475E-1,4.7486877E0,5.9597173E0,1.0560532E1,1.4729977E-1,8.149649E0,4.3664017E0,3.9446135E0,5.0111877E1,1.4281949E0,0E0,7.4746263E-1,0E0,3.222801E0,0E0,9.504726E0,6.7050776E0,0E0,0E0,3.1648765E0,0E0,3.6568913E0,1.60147E0,0E0,0E0,1.4456177E-1,4.632593E0,0E0,1.9727502E0,8.724724E0,4.4950604E-2,0E0,8.683109E-2,1.5967011E-1,5.013916E0,4.1074867E0,2.0880826E0,2.2215507E0,0E0,4.1235107E1,5.078353E0,0E0,0E0,0E0,0E0,2.397128E0,3.7885523E-1,4.6409836E0,0E0,0E0,0E0,3.1346788E0,0E0,5.3889885E0,2.1172163E0,0E0,0E0,0E0,0E0,0E0,0E0,0E0,0E0,8.503113E0,2.7989964E0,0E0,0E0,0E0,0E0,0E0,0E0,0E0,5.5328617E0,3.5646665E0,1.3825378E0,0E0,0E0,0E0,5.0525355E0,8.9314575E0,1.0852335E1,0E0,2.4122283E0,0E0,0E0,0E0,0E0,2.2904491E0,0E0,0E0,9.2759323E-1,0E0,0E0,0E0,0E0,6.2450027E0,1.423136E0,0E0,0E0,0E0,7.8414905E-1,4.6811533E-1,0E0,3.288001E0,1.9804001E-1,9.873414E-2,1.6248046E0,7.282898E0,3.4854515E0,7.9752045E0,8.150681E0,0E0,0E0,0E0,0E0,0E0,0E0,0E0,0E0,0E0,0E0,0E0,0E0,0E0,0E0,0E0,0E0,0E0,0E0,0E0,0E0,0E0,0E0,0E0,0E0,0E0,0E0,0E0,0E0,0E0,0E0],"parents":[2147483647,0,0,1,1,2,2,3,3,4,4,5,5,6,6,7,7,8,8,9,9,11,11,12,12,13,13,14,14,16,16,17,17,21,21,23,23,24,24,25,25,26,26,27,27,28,28,29,29,30,30,32,32,33,33,34,34,35,35,36,36,37,37,38,38,39,39,40,40,41,41,42,42,43,43,44,44,45,45,47,47,49,49,51,51,52,52,55,55,57,57,58,58,61,61,62,62,64,64,65,65,66,66,68,68,69,69,70,70,71,71,72,72,73,73,75,75,76,76,81,81,82,82,83,83,87,87,89,89,90,90,99,99,100,100,108,108,109,109,110,110,114,114,115,115,116,116,118,118,123,123,126,126,131,131,132,132,136,136,137,137,139,139,140,140,141,141,142,142,143,143,144,144,145,145,146,146],"right_children":[2,4,6,8,10,12,14,16,18,20,-1,22,24,26,28,-1,30,32,-1,-1,-1,34,-1,36,38,40,42,44,46,48,50,-1,52,54,56,58,60,62,64,66,68,70,72,74,76,78,-1,80,-1,82,-1,84,86,-1,-1,88,-1,90,92,-1,-1,94,96,-1,98,100,102,-1,104,106,108,110,112,114,-1,116,118,-1,-1,-1,-1,120,122,124,-1,-1,-1,126,-1,128,130,-1,-1,-1,-1,-1,-1,-1,-1,132,134,-1,-1,-1,-1,-1,-1,-1,136,138,140,-1,-1,-1,142,144,146,-1,148,-1,-1,-1,-1,150,-1,-1,152,-1,-1,-1,-1,154,156,-1,-1,-1,158,160,-1,162,164,166,168,170,172,174,176,-1,-1,-1,-1,-1,-1,-1,-1,-1,-1,-1,-1,-1,-1,-1,-1,-1,-1,-1,-1,-1,-1,-1,-1,-1,-1,-1,-1,-1,-1],"split_conditions":[3.413321E1,1.93349E1,1.6634447E1,2.8E1,8.39769E1,2.9631839E0,4.6E1,7.93062E1,1.076896E2,1.9708302E0,-8.84678E-2,3.514817E1,4.695846E1,2.2975649E1,3.97938E1,6.399504E-2,1.2888031E1,2.7166233E1,-7.9234935E-2,1.0520256E-1,-7.237824E-2,1.7395122E0,-6.870736E-2,2.43567E1,3.38838E1,2.56436E1,-3.8502827E-1,1.0777307E0,-3.059852E-1,4.094795E1,2.030934E1,-7.076146E-2,4.829E0,1.5915582E1,6.0408497E0,3.9281E0,1.63756E1,1.104579E2,4.213352E1,1.2259593E2,2.59792E1,4.119939E1,6E1,6.619643E1,6.4989525E1,2.961091E-1,-8.741241E-2,1.1040039E1,7.73719E-2,5.9565645E-1,-8.642683E-2,3.7692223E0,2.0554663E1,1.8018353E-1,1.5226374E-2,1.237117E2,-5.4167528E-2,2.6040165E1,2.19958E1,-7.306306E-2,3.5148866E-3,2.0955948E1,5.455E-1,-6.848233E-2,5.365366E1,3.74967E1,1.003E0,-3.8809075E-3,4.0200295E0,3.8651867E1,5.9066544E1,8.773741E1,3.6119244E1,5.6426533E-2,-8.290018E-2,6.93508E1,1.8812443E1,7.272803E-2,-4.2033292E-2,3.5777611E-3,-6.84333E-2,9.527874E1,3.6657322E1,5.7491127E1,-5.933352E-2,1.02661274E-1,-7.180558E-2,3.80446E1,-3.0861733E-2,2.4278225E1,3.3218674E1,1.4030246E-1,-0E0,-9.008959E-2,-1.3282398E-2,-6.0247388E-2,1.1805365E-1,1.3416895E-1,-3.7153857E-3,5.484E0,3.459095E0,-6.318561E-2,-1.4270105E-3,-8.3535165E-2,-1.1344329E-2,-7.268185E-2,-0E0,-5.1502634E-2,2.432909E1,3.4906353E1,5.36315E1,9.359807E-2,-3.8221996E-2,8.290537E-2,6.0306496E1,6.3857E0,5.3039146E1,-8.148738E-2,3.9288586E1,1.03967205E-1,-3.9907504E-2,-7.9323225E-2,-8.12925E-3,3.33602E1,-1.831008E-2,-3.4978233E-2,5.0428696E1,-4.0826906E-2,1.3840275E-1,-7.555001E-2,2.964914E-2,2E0,5.1795214E-1,-5.713641E-2,6.637621E-2,1.5291005E-1,9.43514E1,3.9417595E1,-5.065894E-2,3.520588E1,9.444474E1,3.08914E1,2.1988E0,1.8164455E1,3.08209E1,2.59792E1,3.569452E1,9.374589E-2,-4.2575233E-2,1.6988117E-1,4.460946E-2,1.2821068E-1,2.1285375E-3,-3.073304E-2,1.3004611E-1,-6.275384E-2,4.1652393E-2,3.3942305E-2,-4.707486E-2,3.3905609E-3,1.1504755E-1,2.2083037E-2,-7.414319E-2,-4.4513334E-2,-8.697553E-2,-3.360991E-3,-7.4574046E-2,1.11147314E-1,-8.229416E-3,1.0318411E-1,1.7344077E-1,1.0503246E-1,-4.5098618E-2,5.540314E-2,-6.351064E-2,1.5951924E-1,-2.5160238E-2],"split_indices":[2,23,23,2,15,13,2,15,15,13,0,7,2,1,3,0,23,0,0,0,0,20,0,1,3,23,24,26,22,10,1,0,12,23,12,12,23,15,9,15,23,2,0,9,2,20,0,23,0,20,0,13,1,0,0,15,0,0,1,0,0,20,22,0,2,7,22,0,13,7,9,15,2,20,0,10,23,0,0,0,0,15,3,9,0,0,0,9,0,0,3,0,0,0,0,0,0,0,0,20,13,0,0,0,0,0,0,0,23,7,10,0,0,0,10,12,2,0,0,0,0,0,0,7,0,0,9,0,0,0,0,13,22,0,0,0,15,2,0,3,15,7,12,23,3,23,3,0,0,0,0,0,0,0,0,0,0,0,0,0,0,0,0,0,0,0,0,0,0,0,0,0,0,0,0,0,0],"split_type":[0,0,0,0,0,0,0,0,0,0,0,0,0,0,0,0,0,0,0,0,0,0,0,0,0,0,0,0,0,0,0,0,0,0,0,0,0,0,0,0,0,0,0,0,0,0,0,0,0,0,0,0,0,0,0,0,0,0,0,0,0,0,0,0,0,0,0,0,0,0,0,0,0,0,0,0,0,0,0,0,0,0,0,0,0,0,0,0,0,0,0,0,0,0,0,0,0,0,0,0,0,0,0,0,0,0,0,0,0,0,0,0,0,0,0,0,0,0,0,0,0,0,0,0,0,0,0,0,0,0,0,0,0,0,0,0,0,0,0,0,0,0,0,0,0,0,0,0,0,0,0,0,0,0,0,0,0,0,0,0,0,0,0,0,0,0,0,0,0,0,0,0,0,0,0,0,0],"sum_hessian":[2.6560027E3,7.8831384E2,1.8676888E3,2.359756E2,5.523382E2,6.9550323E2,1.1721855E3,1.5734534E2,7.863028E1,1.5584137E1,5.367541E2,6.9582245E1,6.25921E2,3.7399432E2,7.981912E2,3.2121406E0,1.541332E2,6.074582E1,1.788446E1,5.37567E0,1.02084675E1,6.15867E1,7.995547E0,5.480323E1,5.711178E2,1.6093417E2,2.1306015E2,7.3951373E2,5.8677536E1,1.2898258E1,1.4123492E2,9.26123E0,5.148459E1,3.673904E1,2.484766E1,3.6411007E1,1.8392223E1,5.562557E2,1.4862091E1,1.2939116E2,3.1543018E1,3.3539673E1,1.7952048E2,4.59603E1,6.935534E2,4.7986326E0,5.3878902E1,1.0855823E1,2.0424352E0,2.7786646E1,1.1344829E2,3.6143738E1,1.5340849E1,3.370105E1,3.0379903E0,2.0578274E1,4.2693853E0,2.6034449E1,1.0376558E1,1.6147947E1,2.2442763E0,5.479222E2,8.333538E0,8.213309E0,6.648782E0,1.2105456E2,8.336606E0,2.1345358E0,2.9408484E1,1.2125919E1,2.1413754E1,1.7352112E2,5.999371E0,2.3558945E1,2.2401356E1,6.6682935E2,2.6724089E1,2.1254263E0,2.6732066E0,2.2781692E0,8.577654E0,5.475807E0,2.2310839E1,3.0893799E1,5.2499394E0,5.449793E0,9.891056E0,1.6512014E1,4.066261E0,1.0022584E1,1.6011864E1,7.779768E0,2.59679E0,5.4517645E2,2.7456956E0,5.1790614E0,3.1544764E0,4.524376E0,2.1244059E0,1.08682945E2,1.2371611E1,6.2600055E0,2.0766006E0,2.674592E1,2.6625626E0,1.00789385E1,2.046981E0,3.72793E0,1.7685823E1,1.1873109E1,1.6164801E2,3.6679475E0,2.3314238E0,3.4011245E0,2.015782E1,5.994142E2,6.741515E1,1.9344227E1,7.379863E0,2.9175713E0,2.5582356E0,1.838136E1,3.9294796E0,2.7825993E1,3.067807E0,2.0612714E0,1.4450743E1,4.9938087E0,5.028775E0,1.2509026E1,3.5028389E0,1.0125066E2,7.432283E0,8.511175E0,3.8604357E0,1.2093331E1,5.5924916E0,4.858369E0,7.01474E0,2.7273159E1,1.3437485E2,1.3779296E1,6.3785253E0,5.9026404E2,9.150109E0,4.3340206E1,2.4074951E1,5.0565667E0,2.323296E0,2.087915E1,6.9468427E0,1.2179438E1,2.2713044E0,4.0937896E0,9.7156876E1,5.402505E0,2.0297782E0,2.3233614E0,3.2691305E0,2.235069E0,2.6232998E0,9.780395E0,1.7492764E1,1.4338822E1,1.2003602E2,2.1265447E0,1.1652751E1,3.9859512E0,2.3925738E0,4.7986683E1,5.4227734E2,3.3431637E0,5.806946E0,2.3136593E1,2.0203613E1,1.8695297E1,5.3796544E0],"tree_param":{"num_deleted":"0","num_feature":"27","num_nodes":"177","size_leaf_vector":"1"}},{"base_weights":[4.542308E-3,-6.027805E-1,4.6472374E-1,-6.135478E-1,9.1793746E-1,1.1399481E0,-5.971682E-1,-6.199795E-1,2.6428074E-1,1.6193895E-1,7.882023E-3,4.0386096E-1,1.242117E0,6.766444E-2,-9.044374E-2,-6.249878E-1,9.7492754E-2,-5.4939393E-2,1.303014E-1,-9.597985E-2,1.0548007E0,1.2884188E0,6.5317905E-1,5.065491E-1,-6.4301476E-2,-5.0949496E-3,-9.05654E-2,-5.9116554E-2,1.2902464E-1,8.796842E-1,-2.7449512E-1,1.2416537E0,4.2262292E-1,8.307924E-1,1.3006245E0,1.0413182E0,-2.6394826E-1,7.911784E-1,-4.6307355E-2,1.5976612E-1,-0E0,-4.1703856E-1,1.3543569E-1,4.8018476E-1,1.8946317E-1,-2.580407E-1,1.5954679E-1,-5.411768E-2,1.0807029E0,3.3480067E-2,1.3028008E0,1.155664E0,-4.5705292E-2,1.02792956E-1,-3.9174852E-1,-0E0,1.3829564E-1,4.2702384E-2,-4.9276778E-1,1.1165227E-1,-2.755925E-3,-5.9545565E-2,7.849749E-3,2.8516186E-2,1.659126E-1,3.6606472E-2,1.8882729E-1,1.779348E-1,9.428713E-3,4.16073E-2,-7.2651887E-3,-4.8617136E-1,7.1349456E-3,-5.4334325E-1,1.7158636E-3,-3.3236223E-3,-7.698767E-2,-8.7044396E-2,-1.2852998E-2],"categories":[],"categories_nodes":[],"categories_segments":[],"categories_sizes":[],"default_left":[0,0,0,0,0,0,0,0,0,0,0,0,0,0,0,0,0,0,0,0,0,0,0,0,0,0,0,0,0,0,0,0,0,0,0,0,0,0,0,0,0,0,0,0,0,0,0,0,0,0,0,0,0,0,0,0,0,0,0,0,0,0,0,0,0,0,0,0,0,0,0,0,0,0,0,0,0,0,0],"id":10,"left_children":[1,3,5,7,9,11,13,15,17,-1,-1,19,21,23,-1,25,27,-1,-1,29,31,33,35,37,-1,-1,-1,-1,-1,39,41,43,45,47,49,51,53,55,-1,-1,-1,57,-1,59,-1,61,-1,-1,63,-1,65,67,-1,69,71,-1,-1,-1,73,-1,-1,-1,-1,-1,-1,-1,-1,-1,-1,-1,-1,75,-1,77,-1,-1,-1,-1,-1],"loss_changes":[7.446189E2,1.9853271E1,1.0886863E3,6.898102E0,9.9444723E-1,6.820068E1,1.1179001E1,4.3747253E0,4.705956E0,0E0,0E0,3.8427193E1,1.9815796E1,6.111205E0,0E0,2.741394E-1,4.5902705E0,0E0,0E0,1.2047538E1,4.4091454E0,1.2845459E0,2.3580702E1,4.153489E0,0E0,0E0,0E0,0E0,0E0,1.773737E0,1.0786661E1,7.5466156E-2,7.870721E0,8.851669E0,5.706787E-1,8.098904E0,1.1334717E0,1.2335868E0,0E0,0E0,0E0,3.2930498E0,0E0,1.2552683E0,0E0,5.9392333E-1,0E0,0E0,3.8363647E-1,0E0,3.137207E-1,2.8488045E0,0E0,2.8364205E-1,8.6843276E-1,0E0,0E0,0E0,1.4723797E0,0E0,0E0,0E0,0E0,0E0,0E0,0E0,0E0,0E0,0E0,0E0,0E0,9.2339516E-2,0E0,8.877754E-1,0E0,0E0,0E0,0E0,0E0],"parents":[2147483647,0,0,1,1,2,2,3,3,4,4,5,5,6,6,7,7,8,8,11,11,12,12,13,13,15,15,16,16,19,19,20,20,21,21,22,22,23,23,29,29,30,30,31,31,32,32,33,33,34,34,35,35,36,36,37,37,41,41,43,43,45,45,48,48,50,50,51,51,53,53,54,54,58,58,71,71,73,73],"right_children":[2,4,6,8,10,12,14,16,18,-1,-1,20,22,24,-1,26,28,-1,-1,30,32,34,36,38,-1,-1,-1,-1,-1,40,42,44,46,48,50,52,54,56,-1,-1,-1,58,-1,60,-1,62,-1,-1,64,-1,66,68,-1,70,72,-1,-1,-1,74,-1,-1,-1,-1,-1,-1,-1,-1,-1,-1,-1,-1,76,-1,78,-1,-1,-1,-1,-1],"split_conditions":[3.7816086E1,4.16541E1,3.83382E1,2.74806E1,6.285029E1,3.7914265E1,3.8377E1,1.081734E2,9.302817E1,1.6193895E-1,7.882023E-3,2.1720287E1,3.82749E1,6.41274E1,-9.044374E-2,1.1287955E0,3.77495E1,-5.4939393E-2,1.303014E-1,2.633375E1,5.2342888E1,2.8312357E1,1.0292757E2,2.3160707E1,-6.4301476E-2,-5.0949496E-3,-9.05654E-2,-5.9116554E-2,1.2902464E-1,9.29499E1,6.560172E1,2.211286E1,5.5254974E1,3.79584E1,1.1040039E1,6.28169E1,5.6426533E-2,3.131267E1,-4.6307355E-2,1.5976612E-1,-0E0,1.5273668E0,1.3543569E-1,4.5309807E1,1.8946317E-1,6.66205E1,1.5954679E-1,-5.411768E-2,1.1E-3,3.3480067E-2,9E0,7.0328E0,-4.5705292E-2,6.619643E1,4.9188E0,-0E0,1.3829564E-1,4.2702384E-2,5.4114466E0,1.1165227E-1,-2.755925E-3,-5.9545565E-2,7.849749E-3,2.8516186E-2,1.659126E-1,3.6606472E-2,1.8882729E-1,1.779348E-1,9.428713E-3,4.16073E-2,-7.2651887E-3,5.9043682E1,7.1349456E-3,3.698526E1,1.7158636E-3,-3.3236223E-3,-7.698767E-2,-8.7044396E-2,-1.2852998E-2],"split_indices":[18,3,18,23,2,18,18,17,15,0,0,23,18,17,0,13,18,0,0,2,2,3,16,23,0,0,0,0,0,15,9,23,2,18,23,19,20,3,0,0,0,12,0,2,0,10,0,0,20,0,2,20,0,9,12,0,0,0,20,0,0,0,0,0,0,0,0,0,0,0,0,17,0,3,0,0,0,0,0],"split_type":[0,0,0,0,0,0,0,0,0,0,0,0,0,0,0,0,0,0,0,0,0,0,0,0,0,0,0,0,0,0,0,0,0,0,0,0,0,0,0,0,0,0,0,0,0,0,0,0,0,0,0,0,0,0,0,0,0,0,0,0,0,0,0,0,0,0,0,0,0,0,0,0,0,0,0,0,0,0,0],"sum_hessian":[2.6603835E3,1.1462601E3,1.5141233E3,1.1396276E3,6.632494E0,9.2567535E2,5.88448E2,1.1323077E3,7.319814E0,4.5792403E0,2.053254E0,1.1445154E2,8.112238E2,2.3013746E1,5.6543427E2,1.125177E3,7.130822E0,3.789364E0,3.5304503E0,6.543872E1,4.9012814E1,7.493243E2,6.1899532E1,1.2750135E1,1.0263611E1,2.2231271E0,1.1229539E3,4.707952E0,2.4228704E0,8.593472E0,5.6845253E1,3.5906906E1,1.31059065E1,2.383704E1,7.2548724E2,4.3551136E1,1.8348396E1,9.846114E0,2.9040208E0,6.1655846E0,2.427887E0,5.2298546E1,4.546708E0,4.6730437E0,3.1233864E1,6.9401746E0,6.165732E0,3.6940715E0,2.0142967E1,2.227054E0,7.232602E2,4.0671024E1,2.8801138E0,4.177766E0,1.417063E1,2.388993E0,7.4571214E0,4.039101E0,4.8259445E1,2.664312E0,2.0087318E0,4.9271107E0,2.013064E0,2.3080416E0,1.7834927E1,2.165905E0,7.210943E2,3.756421E1,3.1068127E0,2.0555694E0,2.1221967E0,1.2115812E1,2.0548184E0,4.4315056E1,3.9443884E0,2.0147336E0,1.0101078E1,3.806115E1,6.2539043E0],"tree_param":{"num_deleted":"0","num_feature":"27","num_nodes":"79","size_leaf_vector":"1"}},{"base_weights":[1.4459057E-3,8.53999E-1,-3.2661417E-1,2.738707E-1,1.0484163E0,-4.6323007E-1,1.0684011E0,4.9218798E-1,-4.9297246E-1,3.9777595E-1,1.1232464E0,-5.1626325E-1,-3.898466E-2,1.1042954E0,2.723511E-2,-3.3168542E-1,7.192848E-1,-5.3014356E-1,6.7251157E-3,7.317834E-1,-7.9154134E-2,1.7578425E-1,7.005285E-1,-5.4377896E-1,3.1407576E-2,5.1108927E-1,-2.5115126E-1,4.7930717E-1,1.1402158E0,-5.067622E-2,7.2833404E-2,-5.088158E-1,7.690425E-2,3.2948115E-1,9.735654E-1,-9.7888E-3,-5.696415E-1,2.4882568E-1,1.5854125E-1,-0E0,9.793534E-1,1.4051938E-1,-5.5339074E-1,5.735561E-1,-2.9832265E-1,7.796234E-2,6.419552E-1,-3.8494837E-1,1.10880295E-2,7.397956E-1,-4.0605653E-2,4.3360946E-1,1.1633797E0,-0E0,-5.355569E-1,6.811446E-1,-1.0138659E-1,1.033625E0,2.4417822E-1,-2.82961E-3,-8.571836E-2,6.363234E-1,-1.9437814E-1,-3.8820392E-1,4.6240222E-1,1.963176E-1,1.1574063E0,-4.3572953E-1,1.1446471E-1,-6.0495555E-1,-4.7651476E-1,-3.434175E-2,7.472787E-1,5.3959135E-2,-5.028307E-1,4.8816958E-1,-4.946763E-2,7.2858465E-1,-2.2050828E-2,-1.10564776E-1,-5.08942E-1,-1.8300317E-1,5.8761996E-1,5.9367474E-3,1.2431743E-1,-3.5287898E-2,1.11891985E-1,1.1756958E0,5.1332254E-2,-3.433495E-3,-8.16844E-2,1.5467541E-1,2.8299427E-1,-3.091611E-1,4.784202E-1,2.9328473E-2,1.0704454E0,8.925965E-2,-2.253508E-2,1.2516738E-1,-1.3244035E-2,-6.275357E-2,2.1489784E-2,-7.841075E-2,3.8730662E-2,-3.524969E-3,6.5720624E-1,-3.085958E-1,1.2788396E-1,1.7101505E-1,3.293222E-2,-7.069946E-2,-3.896816E-4,-6.059257E-1,-1.0057836E-2,-2.9226837E-1,-5.6343794E-1,4.6677305E-3,8.4425277E-1,-3.9341936E-1,5.2605677E-1,-0E0,-8.4541254E-2,-8.538389E-3,1.08679764E-1,9.2585754E-1,3.1363097E-1,-4.8885787E-1,2.574896E-1,-5.4545695E-1,-0E0,9.666302E-2,-3.029527E-1,-3.6953926E-2,8.203292E-1,3.5564296E-2,1.7134412E-1,5.306217E-1,-1.6165031E-1,3.7437636E-2,-4.3521702E-1,9.511935E-2,3.7379636E-4,3.1597618E-2,1.6025665E-1,1.13218404E-1,1.6822157E-2,4.9817455E-3,-6.5129675E-2,-8.783049E-2,-1.0785502E-2,-3.470609E-1,3.528071E-1,-5.7537055E-1,-2.1593946E-1,1.5023914E-1,1.9013304E-1,-1.2403816E-3,-6.4644225E-2,-0E0,1.06352225E-1,4.228916E-2,-3.9908048E-2,1.8095955E-1,1.0757204E0,-1.0578255E-1,5.308544E-1,-7.672044E-2,-1.5628007E-3,6.401852E-1,-6.855111E-2,-5.7102764E-1,-8.9510955E-2,3.1271264E-2,-3.5125222E-2,2.3026312E-2,-3.6074844E-1,3.384022E-2,1.3859212E-1,-6.034383E-3,1.0177572E-1,-4.5975223E-2,2.2345488E-3,-6.7867406E-2,-3.3132466E-3,8.824123E-2,-5.340412E-2,-9.044894E-3,9.049551E-2,-3.0724362E-3,-8.3567016E-2,-6.916819E-2,1.6267916E-2,-3.501987E-2,6.9986E-2,-1.0780916E-2,6.549747E-2,2.4932526E-2,1.705017E-1,6.429583E-3,-3.9648943E-2,1.06998555E-1,-8.408567E-3,1.2487742E-1,-0E0,-4.5516774E-2,3.89028E-2,-3.2004619E-3,-8.474552E-2,3.1760489E-3,-3.498357E-2,2.301117E-2,-6.197977E-2],"categories":[],"categories_nodes":[],"categories_segments":[],"categories_sizes":[],"default_left":[0,0,0,0,0,0,0,0,0,0,0,0,0,0,0,0,0,0,0,0,0,0,0,0,0,0,0,0,0,0,0,0,0,0,0,0,0,0,0,0,0,0,0,0,0,0,0,0,0,0,0,0,0,0,0,0,0,0,0,0,0,0,0,0,0,0,0,0,0,0,0,0,0,0,0,0,0,0,0,0,0,0,0,0,0,0,0,0,0,0,0,0,0,0,0,0,0,0,0,0,0,0,0,0,0,0,0,0,0,0,0,0,0,0,0,0,0,0,0,0,0,0,0,0,0,0,0,0,0,0,0,0,0,0,0,0,0,0,0,0,0,0,0,0,0,0,0,0,0,0,0,0,0,0,0,0,0,0,0,0,0,0,0,0,0,0,0,0,0,0,0,0,0,0,0,0,0,0,0,0,0,0,0,0,0,0,0,0,0,0,0,0,0,0,0,0,0,0,0,0,0,0,0,0,0,0,0,0,0,0,0,0,0],"id":11,"left_children":[1,3,5,7,9,11,13,15,17,19,21,23,25,27,29,31,33,35,-1,37,-1,-1,39,41,43,45,47,49,51,-1,-1,53,-1,55,57,-1,59,61,-1,63,65,67,69,71,73,75,77,79,81,83,-1,85,87,-1,89,91,93,95,97,-1,-1,99,101,103,105,107,109,111,-1,113,115,-1,117,119,121,123,-1,125,-1,127,129,131,133,-1,-1,-1,-1,135,-1,-1,-1,-1,137,139,141,-1,143,-1,-1,-1,-1,-1,-1,-1,-1,-1,145,147,-1,-1,-1,-1,-1,149,-1,151,153,-1,155,157,159,161,-1,-1,-1,163,165,167,169,171,173,-1,175,-1,177,-1,-1,179,181,-1,183,-1,-1,-1,-1,-1,-1,-1,-1,-1,-1,185,187,189,191,-1,193,-1,-1,-1,-1,-1,-1,195,197,199,201,-1,-1,203,205,207,209,-1,-1,-1,211,-1,-1,-1,-1,-1,-1,-1,-1,-1,-1,-1,-1,-1,-1,-1,-1,-1,-1,-1,-1,-1,-1,-1,-1,-1,-1,-1,-1,-1,-1,-1,-1,-1,-1,-1,-1],"loss_changes":[7.4883075E2,8.289856E1,3.6914502E2,3.229827E1,2.5662476E1,3.9417603E1,6.02269E0,2.8535133E1,1.0678358E0,2.0122992E1,1.6839478E1,2.3792267E1,2.3364223E1,2.090149E0,1.8769423E0,5.6407104E0,1.0604195E1,4.5558453E-1,0E0,7.112665E0,0E0,0E0,1.8250885E1,1.0102722E1,1.4069405E1,2.8083868E0,5.226104E0,3.1659496E0,9.891205E-1,0E0,0E0,2.252922E-1,0E0,7.933293E0,2.1209106E0,0E0,2.3096275E-1,4.3275604E0,0E0,5.5532074E0,8.437866E0,8.995845E0,4.886322E0,4.7440968E0,3.6886172E0,3.1100953E0,3.2925491E0,2.9814978E0,5.9710126E0,5.1656103E-1,0E0,2.5500844E0,1.2675476E-1,0E0,1.7719507E-1,3.3045292E0,3.1258469E0,1.07798E0,1.6010025E0,0E0,0E0,2.593172E0,1.1969465E0,2.068973E0,1.5883372E0,6.0321736E0,2.0185852E-1,1.23583555E-1,0E0,1.43219E-1,9.036484E0,0E0,1.4205351E0,4.4842324E0,1.2599745E0,1.6461933E0,0E0,2.1412735E0,0E0,5.0172696E0,1.1940651E0,4.2421994E0,3.2742434E0,0E0,0E0,0E0,0E0,5.2642822E-2,0E0,0E0,0E0,0E0,2.1870534E0,1.6668024E0,3.4802377E-1,0E0,9.5235443E-1,0E0,0E0,0E0,0E0,0E0,0E0,0E0,0E0,0E0,2.4188328E-1,6.548403E-1,0E0,0E0,0E0,0E0,0E0,1.312561E-1,0E0,7.272293E0,1.169281E0,0E0,1.9727087E0,5.8764815E-2,1.1764407E0,6.867591E-1,0E0,0E0,0E0,1.9161949E0,1.7133088E0,1.5973568E-1,2.5176644E0,3.8846397E-1,4.4907832E-1,0E0,1.1360643E0,0E0,6.8572044E-2,0E0,0E0,1.4617968E0,3.0954528E-1,0E0,5.2186012E-2,0E0,0E0,0E0,0E0,0E0,0E0,0E0,0E0,0E0,0E0,4.2597466E0,2.0877192E0,2.2486877E-1,1.7511289E0,0E0,1.3215593E0,0E0,0E0,0E0,0E0,0E0,0E0,6.73894E-1,9.5020485E-1,2.6856855E-1,1.7127795E0,0E0,0E0,1.0587969E0,1.1066594E0,2.2574615E-1,1.9106677E-1,0E0,0E0,0E0,1.3845434E0,0E0,0E0,0E0,0E0,0E0,0E0,0E0,0E0,0E0,0E0,0E0,0E0,0E0,0E0,0E0,0E0,0E0,0E0,0E0,0E0,0E0,0E0,0E0,0E0,0E0,0E0,0E0,0E0,0E0,0E0,0E0,0E0,0E0,0E0,0E0,0E0],"parents":[2147483647,0,0,1,1,2,2,3,3,4,4,5,5,6,6,7,7,8,8,9,9,10,10,11,11,12,12,13,13,14,14,15,15,16,16,17,17,19,19,22,22,23,23,24,24,25,25,26,26,27,27,28,28,31,31,33,33,34,34,36,36,37,37,39,39,40,40,41,41,42,42,43,43,44,44,45,45,46,46,47,47,48,48,49,49,51,51,52,52,54,54,55,55,56,56,57,57,58,58,61,61,62,62,63,63,64,64,65,65,66,66,67,67,69,69,70,70,72,72,73,73,74,74,75,75,77,77,79,79,80,80,81,81,82,82,87,87,92,92,93,93,94,94,96,96,106,106,107,107,113,113,115,115,116,116,118,118,119,119,120,120,121,121,125,125,126,126,127,127,128,128,129,129,130,130,132,132,134,134,137,137,138,138,140,140,151,151,152,152,153,153,154,154,156,156,163,163,164,164,165,165,166,166,169,169,170,170,171,171,172,172,176,176],"right_children":[2,4,6,8,10,12,14,16,18,20,22,24,26,28,30,32,34,36,-1,38,-1,-1,40,42,44,46,48,50,52,-1,-1,54,-1,56,58,-1,60,62,-1,64,66,68,70,72,74,76,78,80,82,84,-1,86,88,-1,90,92,94,96,98,-1,-1,100,102,104,106,108,110,112,-1,114,116,-1,118,120,122,124,-1,126,-1,128,130,132,134,-1,-1,-1,-1,136,-1,-1,-1,-1,138,140,142,-1,144,-1,-1,-1,-1,-1,-1,-1,-1,-1,146,148,-1,-1,-1,-1,-1,150,-1,152,154,-1,156,158,160,162,-1,-1,-1,164,166,168,170,172,174,-1,176,-1,178,-1,-1,180,182,-1,184,-1,-1,-1,-1,-1,-1,-1,-1,-1,-1,186,188,190,192,-1,194,-1,-1,-1,-1,-1,-1,196,198,200,202,-1,-1,204,206,208,210,-1,-1,-1,212,-1,-1,-1,-1,-1,-1,-1,-1,-1,-1,-1,-1,-1,-1,-1,-1,-1,-1,-1,-1,-1,-1,-1,-1,-1,-1,-1,-1,-1,-1,-1,-1,-1,-1,-1,-1],"split_conditions":[1.0069185E0,1.9801037E1,6.95332E1,3.1505E0,1.0057193E0,7.132249E1,5.8169317E0,1.0057193E0,2.9087E1,8.047888E-1,2.7456E0,3.87951E1,7.353118E-1,9.135972E1,1.0176886E2,1.5071E0,2.501E-1,-1.136E-1,6.7251157E-3,1.2738E0,-7.9154134E-2,1.7578425E-1,2.2951204E1,4.637148E-2,1.4160949E0,9.3291695E1,-1.36E-1,2.5942047E0,-6.676307E-1,-5.067622E-2,7.2833404E-2,2.1031874E1,7.690425E-2,1.1113542E2,2.5484E0,-9.7888E-3,2.0092407E1,1.3851645E0,1.5854125E-1,2.4428247E1,1.0255969E-1,3.5432476E1,-3.8502827E-1,-6.613E-1,4.720845E1,9.312448E1,8.186359E1,1.4559E0,2.78366E1,-4.376E-1,-4.0605653E-2,2.8596E1,6E1,-0E0,2.761139E1,4.8734505E1,3.49114E1,2.7142727E1,1.000725E2,-2.82961E-3,-8.571836E-2,7.235184E1,6.82294E1,4.8338E1,3.337E0,6.77404E1,1.7192E0,1.0289612E0,1.1446471E-1,2.657664E1,1.3547297E0,-3.434175E-2,4.25742E1,-1.898E-1,-5.3439243E-3,-6.3337195E-1,-4.946763E-2,4.409441E1,-2.2050828E-2,4.86215E1,3.00708E1,2.7531675E1,1.0895557E0,5.9367474E-3,1.2431743E-1,-3.5287898E-2,1.11891985E-1,2.1609795E1,5.1332254E-2,-3.433495E-3,-8.16844E-2,1.5467541E-1,6.753502E-1,1.4972882E1,7.668161E-1,2.9328473E-2,-3.830365E-1,8.925965E-2,-2.253508E-2,1.2516738E-1,-1.3244035E-2,-6.275357E-2,2.1489784E-2,-7.841075E-2,3.8730662E-2,-3.524969E-3,2.6562553E1,8.34849E1,1.2788396E-1,1.7101505E-1,3.293222E-2,-7.069946E-2,-3.896816E-4,3.9650772E1,-1.0057836E-2,3.6859608E1,2.998E-1,4.6677305E-3,7.48552E1,4.24966E1,4.17961E1,2.6000607E1,-8.4541254E-2,-8.538389E-3,1.08679764E-1,-4.7288936E-1,4.963197E1,1.3727E0,7.76412E1,3.64706E1,2.7202E0,9.666302E-2,9.3893295E1,-3.6953926E-2,7.99484E1,3.5564296E-2,1.7134412E-1,7.598254E1,1.0816336E0,3.7437636E-2,2.36955E1,9.511935E-2,3.7379636E-4,3.1597618E-2,1.6025665E-1,1.13218404E-1,1.6822157E-2,4.9817455E-3,-6.5129675E-2,-8.783049E-2,-1.0785502E-2,1.8005827E1,-3.12E-1,1.8165287E1,2.7426E1,1.5023914E-1,1.8969E1,-1.2403816E-3,-6.4644225E-2,-0E0,1.06352225E-1,4.228916E-2,-3.9908048E-2,9.756508E1,2.8585579E1,6.0173622E1,7.7106553E-1,-7.672044E-2,-1.5628007E-3,2.36181E1,8.373665E1,3.3717953E1,2.902817E1,3.1271264E-2,-3.5125222E-2,2.3026312E-2,-3.270938E-1,3.384022E-2,1.3859212E-1,-6.034383E-3,1.0177572E-1,-4.5975223E-2,2.2345488E-3,-6.7867406E-2,-3.3132466E-3,8.824123E-2,-5.340412E-2,-9.044894E-3,9.049551E-2,-3.0724362E-3,-8.3567016E-2,-6.916819E-2,1.6267916E-2,-3.501987E-2,6.9986E-2,-1.0780916E-2,6.549747E-2,2.4932526E-2,1.705017E-1,6.429583E-3,-3.9648943E-2,1.06998555E-1,-8.408567E-3,1.2487742E-1,-0E0,-4.5516774E-2,3.89028E-2,-3.2004619E-3,-8.474552E-2,3.1760489E-3,-3.498357E-2,2.301117E-2,-6.197977E-2],"split_indices":[26,23,19,5,26,9,5,26,1,26,5,8,5,15,14,24,24,22,0,24,0,0,23,5,5,15,24,5,24,0,0,0,0,17,5,0,0,5,0,1,24,19,24,24,9,14,17,5,23,24,0,23,0,0,8,9,8,8,17,0,0,17,19,19,5,19,22,22,0,23,5,0,17,24,22,24,0,0,0,17,23,8,26,0,0,0,0,23,0,0,0,0,22,23,5,0,22,0,0,0,0,0,0,0,0,0,1,17,0,0,0,0,0,3,0,8,24,0,17,3,3,1,0,0,0,24,0,5,9,8,5,0,14,0,9,0,0,17,22,0,1,0,0,0,0,0,0,0,0,0,0,1,24,1,1,0,1,0,0,0,0,0,0,14,7,17,22,0,0,1,9,19,23,0,0,0,22,0,0,0,0,0,0,0,0,0,0,0,0,0,0,0,0,0,0,0,0,0,0,0,0,0,0,0,0,0,0,0,0,0,0,0,0],"split_type":[0,0,0,0,0,0,0,0,0,0,0,0,0,0,0,0,0,0,0,0,0,0,0,0,0,0,0,0,0,0,0,0,0,0,0,0,0,0,0,0,0,0,0,0,0,0,0,0,0,0,0,0,0,0,0,0,0,0,0,0,0,0,0,0,0,0,0,0,0,0,0,0,0,0,0,0,0,0,0,0,0,0,0,0,0,0,0,0,0,0,0,0,0,0,0,0,0,0,0,0,0,0,0,0,0,0,0,0,0,0,0,0,0,0,0,0,0,0,0,0,0,0,0,0,0,0,0,0,0,0,0,0,0,0,0,0,0,0,0,0,0,0,0,0,0,0,0,0,0,0,0,0,0,0,0,0,0,0,0,0,0,0,0,0,0,0,0,0,0,0,0,0,0,0,0,0,0,0,0,0,0,0,0,0,0,0,0,0,0,0,0,0,0,0,0,0,0,0,0,0,0,0,0,0,0,0,0,0,0,0,0,0,0],"sum_hessian":[2.6726675E3,7.4202985E2,1.9306375E3,1.8791759E2,5.541123E2,1.7598909E3,1.7074667E2,1.4717885E2,4.073874E1,5.8941643E1,4.9517065E2,1.5632537E3,1.9663715E2,1.6463016E2,6.1165175E0,3.1285427E1,1.1589342E2,3.8717762E1,2.0209742E0,4.4144405E1,1.4797235E1,4.0334705E2,9.18236E1,1.4890585E3,7.419518E1,5.3498543E1,1.431386E2,1.104067E1,1.535895E2,3.3265731E0,2.7899444E0,2.697153E1,4.313895E0,4.8119236E1,6.7774185E1,4.139963E0,3.45778E1,2.0832445E1,2.3311962E1,2.6811916E1,6.501169E1,1.9764694E1,1.4692938E3,2.7866154E1,4.6329033E1,1.3755546E1,3.9743E1,9.498036E1,4.815824E1,8.585773E0,2.4548974E0,6.606884E0,1.469826E2,2.03979E0,2.4931742E1,2.626266E1,2.1856577E1,6.141222E1,6.361967E0,2.0949376E0,3.248286E1,1.1036685E1,9.79576E0,1.4653029E1,1.2158886E1,1.3183835E1,5.182785E1,1.0568666E1,9.196028E0,8.6844574E2,6.008481E2,4.4496675E0,2.3416485E1,1.6976707E1,2.9352325E1,7.18619E0,6.5693555E0,3.636195E1,3.381047E0,3.1594305E1,6.3386055E1,3.6644756E1,1.1513485E1,2.055255E0,6.530518E0,2.0738273E0,4.5330567E0,1.4346185E2,3.5207477E0,2.1404335E0,2.2791307E1,1.1142228E1,1.512043E1,1.7212013E1,4.6445637E0,3.550133E0,5.7862087E1,3.1465888E0,3.215378E0,8.451127E0,2.5855577E0,6.0179596E0,3.7778003E0,1.256798E1,2.0850499E0,3.5023556E0,8.65653E0,7.9732394E0,5.210595E0,4.9623158E1,2.2046928E0,8.507489E0,2.0611768E0,8.6599146E2,2.4542866E0,1.9667697E2,4.0417108E2,3.52827E0,1.9888216E1,8.532613E0,8.444094E0,4.4423895E0,2.4909937E1,2.438559E0,4.747631E0,2.2400345E1,1.3961607E1,1.5691664E1,1.5902642E1,5.8932304E1,4.453749E0,3.0336187E0,3.3611137E1,2.141015E0,9.37247E0,2.1699605E0,1.412919E2,9.93457E0,5.1858597E0,2.260467E0,1.4951546E1,2.3052247E0,2.339339E0,3.3603306E0,5.4501755E1,5.7943006E0,2.8622303E0,2.0983357E0,5.8749037E0,8.635E2,2.491469E0,1.8262115E2,1.4055809E1,3.8853906E2,1.5632042E1,1.4026207E1,5.8620086E0,2.07908E0,6.4535327E0,2.9354973E0,5.508597E0,2.0248606E0,2.4175286E0,4.8764644E0,1.752388E1,4.6033096E0,9.358297E0,1.3604292E1,2.0873718E0,6.8751445E0,9.027497E0,5.462886E1,4.303445E0,2.3873086E0,2.0664406E0,2.7035992E0,3.0907537E1,3.282334E0,6.0901356E0,2.2186265E0,7.7159443E0,2.8845847E0,2.3012748E0,1.2821357E1,2.1301887E0,2.5316627E0,1.800895E2,5.7132497E0,8.34256E0,2.1230936E0,3.8641595E2,8.735302E0,6.89674E0,2.0611718E0,3.8008366E0,2.6515462E0,2.224918E0,2.6707997E0,1.4853081E1,2.1898685E0,2.4134414E0,6.9398217E0,2.4184754E0,4.2872286E0,2.587916E0,5.8667507E0,3.160747E0,2.1296532E0,5.2499207E1,2.2429914E0,2.0604537E0,2.6733847E0,2.8234154E1],"tree_param":{"num_deleted":"0","num_feature":"27","num_nodes":"213","size_leaf_vector":"1"}},{"base_weights":[-7.6668193E-3,7.3626E-1,-5.2695614E-1,9.879476E-1,-2.0150788E-2,-1.8271E-1,-6.033879E-1,1.0327758E0,-7.951862E-2,3.3262625E-1,-8.692818E-2,2.4935779E-1,-4.8670357E-1,3.875005E-2,-8.765225E-2,1.0575167E0,-7.1629465E-2,6.288625E-1,-8.422225E-2,5.108748E-1,-8.074477E-2,-8.6083345E-2,-9.8034695E-2,2.1631424E-1,1.0647913E0,-8.051463E-2,8.3826685E-1,6.779873E-1,-7.243517E-2,3.9806914E-1,-7.84239E-2,8.5789256E-2,-4.5350168E-2,1.0686332E0,2.3255211E-1,9.3134713E-1,4.713997E-2,8.808845E-1,-2.2725474E-2,7.6923907E-1,-5.708734E-2,1.5518026E-1,-0E0,-3.625446E-2,9.561341E-2,-4.564113E-2,9.746339E-1,4.441945E-1,-6.005E-2,-5.1248252E-2,9.834784E-1,-7.0634484E-2,5.64897E-1,1.3464764E-1,8.471547E-3,1.4458038E-1,-0E0,-9.000647E-3,9.67126E-2,1.0511076E0,-3.9006785E-2,1.1928909E-1,-7.0700482E-3,3.218321E-2,1.5991682E-1],"categories":[],"categories_nodes":[],"categories_segments":[],"categories_sizes":[],"default_left":[0,0,0,0,0,0,0,0,0,0,0,0,0,0,0,0,0,0,0,0,0,0,0,0,0,0,0,0,0,0,0,0,0,0,0,0,0,0,0,0,0,0,0,0,0,0,0,0,0,0,0,0,0,0,0,0,0,0,0,0,0,0,0,0,0],"id":12,"left_children":[1,3,5,7,9,11,13,15,-1,17,-1,19,21,-1,-1,23,-1,25,-1,27,-1,-1,29,31,33,-1,35,37,-1,39,-1,-1,-1,41,43,45,47,49,51,53,-1,-1,-1,-1,-1,-1,55,57,-1,-1,59,-1,61,-1,-1,-1,-1,-1,-1,63,-1,-1,-1,-1,-1],"loss_changes":[9.898192E2,2.0085052E2,3.922632E1,5.5803955E1,5.4685116E1,3.683176E1,2.8912964E0,3.0324768E1,0E0,4.561601E1,0E0,2.4991768E1,6.556114E0,0E0,0E0,3.742981E0,0E0,3.2392475E1,0E0,1.5753983E1,0E0,0E0,9.047222E0,2.356532E0,1.4615479E0,0E0,7.56884E0,1.1317028E1,0E0,6.3864737E0,0E0,0E0,0E0,2.7699585E0,1.8087394E0,6.053444E0,2.9433775E0,8.569504E0,5.7309756E0,1.1704121E0,0E0,0E0,0E0,0E0,0E0,0E0,2.070732E0,1.2911059E0,0E0,0E0,5.6276855E0,0E0,1.7751269E0,0E0,0E0,0E0,0E0,0E0,0E0,1.4852638E0,0E0,0E0,0E0,0E0,0E0],"parents":[2147483647,0,0,1,1,2,2,3,3,4,4,5,5,6,6,7,7,9,9,11,11,12,12,15,15,17,17,19,19,22,22,23,23,24,24,26,26,27,27,29,29,33,33,34,34,35,35,36,36,37,37,38,38,39,39,46,46,47,47,50,50,52,52,59,59],"right_children":[2,4,6,8,10,12,14,16,-1,18,-1,20,22,-1,-1,24,-1,26,-1,28,-1,-1,30,32,34,-1,36,38,-1,40,-1,-1,-1,42,44,46,48,50,52,54,-1,-1,-1,-1,-1,-1,56,58,-1,-1,60,-1,62,-1,-1,-1,-1,-1,-1,64,-1,-1,-1,-1,-1],"split_conditions":[3.495707E1,-2.891E-1,3.918143E1,3.9877E0,1.988845E2,-3.429E-1,-1.0192225E0,5.8308E1,-7.951862E-2,5.3279385E1,-8.692818E-2,5.6436066E1,3.5967607E0,3.875005E-2,-8.765225E-2,2.7263596E0,-7.1629465E-2,2.9631839E0,-8.422225E-2,3.9281E0,-8.074477E-2,-8.6083345E-2,1.9288914E2,2.4176004E2,2.1036333E2,-8.051463E-2,3.164E0,1.838951E2,-7.243517E-2,5.338352E1,-7.84239E-2,8.5789256E-2,-4.5350168E-2,1.12520645E2,3.872027E2,2.7258518E1,4.1471634E1,8.929528E1,1.0260259E2,3.27561E1,-5.708734E-2,1.5518026E-1,-0E0,-3.625446E-2,9.561341E-2,-4.564113E-2,5.3067642E1,3.8145869E0,-6.005E-2,-5.1248252E-2,8.2674304E2,-7.0634484E-2,3.153499E2,1.3464764E-1,8.471547E-3,1.4458038E-1,-0E0,-9.000647E-3,9.67126E-2,4.3950436E1,-3.9006785E-2,1.1928909E-1,-7.0700482E-3,3.218321E-2,1.5991682E-1],"split_indices":[19,24,19,12,11,24,24,10,0,10,0,10,13,0,0,13,0,13,0,12,0,0,11,6,11,0,12,11,0,9,0,0,0,15,6,8,9,16,15,8,0,0,0,0,0,0,9,13,0,0,6,0,6,0,0,0,0,0,0,9,0,0,0,0,0],"split_type":[0,0,0,0,0,0,0,0,0,0,0,0,0,0,0,0,0,0,0,0,0,0,0,0,0,0,0,0,0,0,0,0,0,0,0,0,0,0,0,0,0,0,0,0,0,0,0,0,0,0,0,0,0,0,0,0,0,0,0,0,0,0,0,0,0],"sum_hessian":[2.5583005E3,1.0510669E3,1.5072336E3,7.885093E2,2.6255762E2,2.7588858E2,1.231345E3,7.670297E2,2.147953E1,1.6350206E2,9.905556E1,1.1364552E2,1.6224307E2,2.2130694E0,1.229132E3,7.556377E2,1.1392055E1,1.2425525E2,3.9246803E1,8.671441E1,2.6931114E1,1.2541981E2,3.6823265E1,7.4062514E0,7.4823145E2,1.791203E1,1.0634322E2,7.527663E1,1.143778E1,1.7136957E1,1.9686308E1,4.55095E0,2.8553011E0,7.4382043E2,4.410963E0,9.445112E1,1.1892107E1,5.833151E1,1.694512E1,1.1995518E1,5.141439E0,7.4116925E2,2.6511855E0,2.1088514E0,2.3021114E0,2.4823585E0,9.196876E1,6.8227167E0,5.069391E0,3.8429158E0,5.4488594E1,9.963045E0,6.9820743E0,8.88458E0,3.1109378E0,8.950746E1,2.4612932E0,2.0942698E0,4.728447E0,5.226067E1,2.2279253E0,4.79294E0,2.1891341E0,4.205127E0,4.8055542E1],"tree_param":{"num_deleted":"0","num_feature":"27","num_nodes":"65","size_leaf_vector":"1"}},{"base_weights":[-4.432331E-3,-2.2911878E-1,5.1862454E-1,-5.470994E-1,-4.801008E-2,-4.145343E-1,6.671421E-1,-4.7218124E-3,-5.683836E-1,2.0659919E-1,-5.453532E-1,1.2459983E-1,-5.008037E-1,7.9934096E-1,-3.3379766E-1,-4.6180677E-1,5.589409E-1,-2.5482267E-1,-5.821988E-1,3.5487202E-1,-3.940436E-1,-5.9840566E-1,1.2935227E-1,-0E0,-8.60139E-2,8.7420684E-1,-9.083882E-2,-4.9616334E-1,9.9328004E-2,-2.7102578E-4,-7.271083E-2,1.1587891E-1,-3.5145037E-2,4.352247E-2,-7.5911805E-2,-4.896861E-1,-8.803499E-2,4.8706117E-1,-3.7804413E-1,3.9596847E-1,-4.958046E-1,-8.766242E-2,4.5092916E-3,4.648045E-1,-4.2453346E-1,-6.868629E-2,5.484198E-1,-1.1063305E-1,9.457755E-1,-4.4396093E-1,4.4650948E-1,-8.4585376E-2,6.328515E-2,3.724586E-1,-3.185281E-1,8.640721E-2,-3.0967855E-1,-2.1433079E-1,-5.7425064E-1,5.650025E-1,-8.2841925E-2,1.1472612E-1,-4.7853732E-1,7.2762835E-1,-3.857604E-2,-1.922838E-1,-5.789343E-1,-4.810972E-2,7.032634E-1,-2.7339354E-3,-6.8230964E-2,1.0871263E-1,-1.4521398E-3,3.6691406E-1,-3.834157E-1,9.8636615E-1,-3.6573303E-1,7.214824E-2,-8.044349E-2,-5.1721603E-2,6.993187E-1,-4.357672E-2,6.0751766E-1,1.7624709E-3,-6.7064404E-2,4.152179E-3,-6.349667E-2,-5.1727134E-1,3.1493062E-1,-4.624142E-3,-8.424372E-2,5.7081383E-2,7.1428096E-1,-5.0458616E-1,8.942925E-3,1.2035759E-3,1.245784E-1,-4.4033355E-1,3.5509172E-1,-8.717179E-2,-2.1353707E-1,1.2219147E-1,3.5274902E-3,7.655231E-1,-3.8876012E-2,-7.764515E-2,1.4887549E-1,3.099068E-1,1.034872E0,-7.368646E-2,3.4088925E-2,6.86093E-2,-3.7912533E-2,1.22160174E-1,-4.8349216E-3,-0E0,1.1043722E-1,-7.908829E-2,-5.930336E-3,6.109193E-1,-4.789279E-2,-3.6690387E-1,4.1034973E-1,6.408399E-3,8.629351E-1,-5.484411E-1,-1.0477094E-1,2.8756618E-2,-7.875306E-2,-3.720816E-2,6.251448E-1,-6.2070917E-2,3.5236605E-2,1.3193564E-1,6.01282E-3,8.0939315E-2,-3.748806E-2,-4.297165E-1,8.5962486E-1,6.53997E-2,1.0572846E0,-5.2057807E-3,1.1904817E-1,7.1579844E-2,-8.381029E-2,1.1455494E-1,-5.2213956E-2,1.22441456E-1,-2.0402225E-2,1.3256788E-1,-3.4337041E-3,-8.2426876E-2,-0E0,-5.9997074E-2,4.460202E-2,2.3736013E-3,1.1288951E-1,-7.590226E-2,2.398614E-3,1.442629E-1,-9.883436E-3,7.712441E-2,-5.800098E-2,1.5391922E-1,-6.651617E-3],"categories":[],"categories_nodes":[],"categories_segments":[],"categories_sizes":[],"default_left":[0,0,0,0,0,0,0,0,0,0,0,0,0,0,0,0,0,0,0,0,0,0,0,0,0,0,0,0,0,0,0,0,0,0,0,0,0,0,0,0,0,0,0,0,0,0,0,0,0,0,0,0,0,0,0,0,0,0,0,0,0,0,0,0,0,0,0,0,0,0,0,0,0,0,0,0,0,0,0,0,0,0,0,0,0,0,0,0,0,0,0,0,0,0,0,0,0,0,0,0,0,0,0,0,0,0,0,0,0,0,0,0,0,0,0,0,0,0,0,0,0,0,0,0,0,0,0,0,0,0,0,0,0,0,0,0,0,0,0,0,0,0,0,0,0,0,0,0,0,0,0,0,0,0,0,0,0,0,0,0,0,0,0,0,0],"id":13,"left_children":[1,3,5,7,9,11,13,15,17,19,21,-1,23,25,27,29,31,33,35,37,39,41,43,45,-1,47,49,51,53,-1,-1,-1,-1,55,-1,57,-1,59,61,63,65,-1,-1,67,69,-1,71,73,75,77,79,-1,-1,81,83,-1,85,87,89,91,-1,-1,93,95,-1,97,99,-1,101,-1,-1,-1,-1,103,105,107,109,111,-1,-1,113,-1,115,-1,-1,-1,-1,117,119,-1,-1,121,123,125,-1,-1,-1,127,129,-1,131,-1,-1,133,-1,-1,135,137,139,-1,-1,-1,-1,-1,-1,-1,-1,-1,-1,141,-1,143,145,147,149,151,153,-1,-1,-1,155,-1,-1,-1,-1,-1,-1,157,159,161,163,-1,-1,-1,-1,-1,-1,-1,-1,-1,-1,-1,-1,-1,-1,-1,-1,-1,-1,-1,-1,-1,-1,-1,-1],"loss_changes":[3.0252798E2,1.03505844E2,1.07822784E2,7.342804E0,1.4606311E2,1.2551371E1,8.912067E1,7.529687E0,2.1395416E0,6.815121E1,1.4296333E1,0E0,4.759733E0,3.9818115E1,5.7950974E0,1.4025736E-1,3.0681133E0,2.7104936E0,4.7470093E-1,5.9781746E1,1.260775E1,1.9035339E0,5.936037E0,5.2459135E0,0E0,3.8961792E1,9.392981E0,5.3881664E0,2.8532665E0,0E0,0E0,0E0,0E0,3.6182086E0,0E0,2.865181E0,0E0,4.363482E1,1.177916E1,4.513918E0,2.9349022E0,0E0,0E0,4.3735194E0,4.6585083E-2,0E0,1.3166633E0,5.3078513E0,2.8059143E1,1.972992E0,4.573373E0,0E0,0E0,2.8751483E0,6.2062E-1,0E0,6.3289225E-1,6.5331435E0,2.2338104E-1,3.6518066E1,0E0,0E0,1.455162E0,9.350438E-1,0E0,4.8325405E0,3.612671E-1,0E0,1.2277613E0,0E0,0E0,0E0,0E0,4.2831006E0,2.4052372E0,1.5138916E1,1.7618575E0,1.2137085E0,0E0,0E0,2.0001912E0,0E0,1.1064391E0,0E0,0E0,0E0,0E0,1.1522961E-1,3.3348582E0,0E0,0E0,1.7267622E1,3.9162003E1,1.1611042E0,0E0,0E0,0E0,1.9314666E0,2.271462E0,0E0,1.288906E0,0E0,0E0,6.472726E-1,0E0,0E0,1.5526236E0,1.5731346E1,9.492889E0,0E0,0E0,0E0,0E0,0E0,0E0,0E0,0E0,0E0,0E0,1.8561287E0,0E0,1.0134261E1,1.9276531E1,8.833098E0,1.4909363E1,7.7175903E-1,1.7923799E0,0E0,0E0,0E0,5.23396E-1,0E0,0E0,0E0,0E0,0E0,0E0,8.900342E-1,3.2297325E0,3.2952566E0,3.5498047E0,0E0,0E0,0E0,0E0,0E0,0E0,0E0,0E0,0E0,0E0,0E0,0E0,0E0,0E0,0E0,0E0,0E0,0E0,0E0,0E0,0E0,0E0,0E0,0E0],"parents":[2147483647,0,0,1,1,2,2,3,3,4,4,5,5,6,6,7,7,8,8,9,9,10,10,12,12,13,13,14,14,15,15,16,16,17,17,18,18,19,19,20,20,21,21,22,22,23,23,25,25,26,26,27,27,28,28,33,33,35,35,37,37,38,38,39,39,40,40,43,43,44,44,46,46,47,47,48,48,49,49,50,50,53,53,54,54,56,56,57,57,58,58,59,59,62,62,63,63,65,65,66,66,68,68,73,73,74,74,75,75,76,76,77,77,80,80,82,82,87,87,88,88,91,91,92,92,93,93,97,97,98,98,100,100,103,103,106,106,107,107,108,108,119,119,121,121,122,122,123,123,124,124,125,125,126,126,130,130,137,137,138,138,139,139,140,140],"right_children":[2,4,6,8,10,12,14,16,18,20,22,-1,24,26,28,30,32,34,36,38,40,42,44,46,-1,48,50,52,54,-1,-1,-1,-1,56,-1,58,-1,60,62,64,66,-1,-1,68,70,-1,72,74,76,78,80,-1,-1,82,84,-1,86,88,90,92,-1,-1,94,96,-1,98,100,-1,102,-1,-1,-1,-1,104,106,108,110,112,-1,-1,114,-1,116,-1,-1,-1,-1,118,120,-1,-1,122,124,126,-1,-1,-1,128,130,-1,132,-1,-1,134,-1,-1,136,138,140,-1,-1,-1,-1,-1,-1,-1,-1,-1,-1,142,-1,144,146,148,150,152,154,-1,-1,-1,156,-1,-1,-1,-1,-1,-1,158,160,162,164,-1,-1,-1,-1,-1,-1,-1,-1,-1,-1,-1,-1,-1,-1,-1,-1,-1,-1,-1,-1,-1,-1,-1,-1],"split_conditions":[3.1150682E0,3.7137074E1,2.9E1,2.7258518E1,6.127334E1,8.487483E1,4.0200295E0,2.7428118E1,-6.045E-1,-6.631752E-2,5.5643658E1,1.2459983E-1,4.9083954E1,7.20832E1,5.3716972E1,2.633317E1,4.38E-2,2.3172798E0,9.940877E1,4.042592E0,8.631472E1,3.402909E1,-2.423E-1,2.485081E1,-8.60139E-2,4.664959E1,4.7821686E1,3.37217E1,1.1208019E2,-2.7102578E-4,-7.271083E-2,1.1587891E-1,-3.5145037E-2,8.8733475E1,-7.5911805E-2,5.149625E1,-8.803499E-2,3.81845E1,-2.6421049E0,5.3261314E1,2.9742908E1,-8.766242E-2,4.5092916E-3,9.746556E1,3.0633764E1,-6.868629E-2,1.5133728E-1,1.6633941E0,3.91158E1,-4.3395096E-1,1.9693395E0,-8.4585376E-2,6.328515E-2,3.8445312E1,3.5160556E0,8.640721E-2,2.5261E0,2.0294213E0,2.761139E1,3.1007147E1,-8.2841925E-2,1.1472612E-1,1.1242579E0,4.119939E1,-3.857604E-2,4.86768E1,5.765969E1,-4.810972E-2,1.1449119E2,-2.7339354E-3,-6.8230964E-2,1.0871263E-1,-1.4521398E-3,2.44597E1,4.14027E0,1.1613982E0,3.6976666E0,2.8631E0,-8.044349E-2,-5.1721603E-2,3.6054E1,-4.357672E-2,4.1868176E0,1.7624709E-3,-6.7064404E-2,4.152179E-3,-6.349667E-2,3.242177E1,3.7257E0,-4.624142E-3,-8.424372E-2,5.24001E1,4.6E1,2.6568E0,8.942925E-3,1.2035759E-3,1.245784E-1,9.990392E1,3.712761E1,-8.717179E-2,1.8339555E0,1.2219147E-1,3.5274902E-3,4.6213474E1,-3.8876012E-2,-7.764515E-2,3.148621E1,4.3E1,2.9809666E1,-7.368646E-2,3.4088925E-2,6.86093E-2,-3.7912533E-2,1.22160174E-1,-4.8349216E-3,-0E0,1.1043722E-1,-7.908829E-2,-5.930336E-3,2.3664253E1,-4.789279E-2,2.521509E0,1.019386E2,-7.284762E-1,6.909281E1,6.0408497E0,1.0020372E2,2.8756618E-2,-7.875306E-2,-3.720816E-2,5.294456E1,-6.2070917E-2,3.5236605E-2,1.3193564E-1,6.01282E-3,8.0939315E-2,-3.748806E-2,5.948107E0,2.3209492E1,2.4315208E1,6.0976227E1,-5.2057807E-3,1.1904817E-1,7.1579844E-2,-8.381029E-2,1.1455494E-1,-5.2213956E-2,1.22441456E-1,-2.0402225E-2,1.3256788E-1,-3.4337041E-3,-8.2426876E-2,-0E0,-5.9997074E-2,4.460202E-2,2.3736013E-3,1.1288951E-1,-7.590226E-2,2.398614E-3,1.442629E-1,-9.883436E-3,7.712441E-2,